{"learner":{"attributes":{"scikit_learn":"{\"_estimator_type\": \"regressor\"}"},"feature_names":["dayofweek","total_promotions","type_PointsBonus","type_FreeProduct","type_ProductDiscount","type_FreeDelivery","type_OverallDiscount","channel_All","channel_Ecomm","channel_InStore","channel_DeliveryOnly","channel_No","channel_AppOnly","channel_A","RequirePurchase_Yes","Segment_AllLoyalty","Segment_RecentPurchasers","Segment_AllCustomers","Product_Points","Product_LTOs","Product_FreeDelivery","Product_All","Product_Delivery","prcp","snow","tmax","tmin","Annual_Seasonality","Weekly_Seasonality","day_promo_interaction"],"feature_types":["float","float","float","float","float","float","float","float","float","float","float","float","float","float","float","float","float","float","float","float","float","float","float","float","float","float","float","float","float","float"],"gradient_booster":{"model":{"gbtree_model_param":{"num_parallel_tree":"1","num_trees":"34"},"iteration_indptr":[0,1,2,3,4,5,6,7,8,9,10,11,12,13,14,15,16,17,18,19,20,21,22,23,24,25,26,27,28,29,30,31,32,33,34],"tree_info":[0,0,0,0,0,0,0,0,0,0,0,0,0,0,0,0,0,0,0,0,0,0,0,0,0,0,0,0,0,0,0,0,0,0],"trees":[{"base_weights":[8.415146E-6,-4.1713687E2,9.4875964E2,-5.611675E2,1.38918E2,5.3737994E2,1.6631289E3,-2.2303609E2,-6.8619965E2,1.2826526E1,7.9143365E2,3.4110742E2,1.0564657E3,1.3134548E3,2.2824521E3,-4.9251825E2,-9.836793E1,-8.6003595E2,-5.1097595E2,2.8126468E2,-1.2567588E2,3.414922E2,1.1075464E3,2.0103535E2,6.6949335E2,8.17376E2,2.2606618E2,9.42125E2,1.589776E3,2.3652512E3,1.670836E2,-1.4274573E2,-4.3007138E2,-8.701643E0,-2.753584E2,-9.8789557E2,-7.2181287E2,-7.429778E2,-3.953934E2,-5.5043945E1,3.8891592E2,-3.7004654E2,1.3149513E2,-1.1477074E1,4.7454538E2,1.7289046E2,3.237736E1,5.860737E2,-1.9361078E2,3.2170612E2,9.2223865E2,1.0178233E3,5.4937067E2,6.494318E2,1.50007E3,1.317353E2,2.5918753E2,3.657083E2,1.98649E2,-5.725917E2,-3.377785E2,-8.226717E1,1.585702E2,-4.6676025E2,-8.0140335E1,-3.898494E2,-1.507083E2,-5.4935E2,-1.1524955E2,-9.4088554E1,-8.5610394E2,-1.2661469E2,-4.6162888E2,2.3902369E1,-8.6189125E1,1.2202168E2,8.092799E1,-4.3452603E2,-2.8026014E1,-5.593965E1,3.9670084E2,1.2728418E2,1.9302988E2,8.771746E1,6.802246E2,-4.3951303E2,5.8536983E1,3.808108E2,-8.136571E0,1.6679977E2,7.228789E2,-5.7528137E1,1.0954261E3,3.9282947E2,1.457605E2,-5.6826458E1,8.0543695E2,6.433937E1,2.3303813E2,-6.0534E2,1.2658631E0,-4.49173E2,-2.373437E2,2.4826727E1,-2.7723837E2,5.9506817E1,2.3923119E2,-1.02400444E2,-2.4793913E2,-1.3854768E2,3.3595544E2,1.2269871E1,-7.92317E1,-6.2032214E2,-1.7390314E2,-2.8461942E2,2.22162E1,-9.4773956E2,-2.2984361E2,-6.1674156E1,-4.1939148E2,-6.5829865E2,-2.6684705E2,-2.0070541E1,1.5188325E1,3.14193E1,2.9694257E2,-4.519159E2,2.0884369E1,1.7140852E2,-4.80257E1,2.5105687E2,-1.3035796E2,5.195538E2,1.474772E2,8.321533E-1,2.6974252E2,1.8533395E2,-3.5155678E1,2.3034967E2,7.4508624E2,-5.5375696E2,-9.872159E1,-4.7885975E1,2.5638654E2,-1.763855E-1,4.0097723E2,6.467395E1,1.3259496E2,6.4756287E2,1.2911157E3,6.877881E1,4.31451E2,-2.1806941E2,5.6204124E1,2.657906E2,1.3575868E2,-9.298817E1,-2.6809635E1,-3.8919235E1,-5.827378E2,-1.1497981E2,-3.482096E2,-1.9796155E2,7.974796E1,-3.6840033E2,-4.2285835E1,1.26374405E2,-1.2253885E2,2.668745E2,-9.009888E0,-6.082732E1,-1.1846155E2,-2.622795E2,1.2870848E2,1.0495368E1,6.509461E1,-6.7358124E2,-2.298118E1,-3.0659075E1,-1.1292175E1,-4.684632E1,-1.3039637E1,9.3782196E1,-4.1273384E1,-1.1954655E3,-8.3611786E2,-3.8211295E2,9.408865E1,-2.5547098E1,-8.0492386E1,1.3048645E0,-5.0674942E2,-7.2816656E2,-3.517681E2,-3.092197E2,2.2254016E2,2.5592853E2,-1.9832648E2,1.8381134E0,5.475768E1,-4.9815076E2,-2.8053436E2,1.1496186E0,3.039369E1,3.7846368E2,-2.5045166E0,-3.5919165E2,1.2840837E2,1.3764326E1,5.88992E2,-1.27523415E2,6.81538E1,-5.396384E0,5.583618E0,5.375079E1,-6.3481297E0,-1.839518E1,2.9084418E2,-6.978451E1,3.4202515E2,6.20686E2,1.6097552E2,-1.11097404E2,-4.0470435E2,-1.452244E2,4.269218E1,-1.3038022E2,1.0246469E2,1.6923685E1,4.8345627E1,2.301535E2,4.4554617E2,1.0762121E2,6.6201143E0,2.0441002E2,2.163512E1,1.4112617E1,1.3626161E0,9.697367E0,4.5303333E2,-2.903063E2,5.315863E0,1.0649863E1,4.4510803E1,-9.3669014E1,-2.1801132E1,-2.2273172E1,-1.8852315E2,-1.5796326E0,-3.8455936E2,-2.7039645E2,1.2895467E1,2.01515E2,-2.6155012E1,-6.8304245E1,-1.6206482E2,4.6693817E1,-2.4597543E2,1.5514398E2,-9.941382E0,-3.7972183E1,2.0196617E1,1.445218E2,4.879196E1,-2.7221453E1,-4.43574E1,-4.639959E1,-1.15721436E2,-3.7203133E1,2.3283351E2,-1.0779281E2,-2.2320679E1,-5.2371887E1,4.7201122E1,-7.6471806E0,1.5053352E2,-4.6701885E1,-1.8504755E2,-7.7348595E1,-1.3097205E2,1.2021149E0,-6.727048E1,2.1991322E1,-4.7603855E0,-2.5838943E2,2.4026184E1,-9.398683E1,-2.0573823E0,-7.554634E2,-2.1173883E2,5.227036E1,-6.486568E1,7.3959625E1,-3.301124E2,7.884932E1,-9.065452E0,4.4241386E1,4.564371E0,-3.4661015E1,-2.594385E0,-1.5777887E1,-5.0774338E2,1.623437E1,-3.302336E2,6.824432E1,1.117262E1,-1.1019132E1,1.0455616E1,3.5154613E1,-4.2818497E2,6.8361115E1,5.916961E1,7.043885E2,3.096386E2,-2.7148638E1,-1.0336323E1,4.8014526E1,8.649619E0,-2.1998842E0,-1.350163E1,5.976548E1,4.4976196E0,7.222387E2,3.3345837E2,-6.3224712E1,-1.2719385E1,-1.040387E0,-1.671165E2,7.789371E0,1.8163697E0,-4.5769325E1,-5.498252E1,-7.7283844E1,2.2577058E2,-1.0020886E1,3.0290656E2,3.1925488E1,7.760196E1,7.1001335E1,1.4176365E1,-5.2776676E1,-7.926883E0,4.1806736E0,-1.2256184E1,-2.0602542E2,-7.575888E0,-4.1482407E2,-1.0683133E1,-1.0498676E1,-3.5310132E2,5.364615E0,-2.4631348E0,2.382442E2,4.094864E1,-3.2298816E2,1.1285682E2,-2.8009714E1,-2.904886E0,-4.17377E1,-8.765388E0,8.758518E1,3.2654427E1,2.7682882E1,-4.172388E0,-9.312177E0,-1.7771729E0,-1.3215884E2,-3.7478852E0,3.9551487E1,5.8963623E0,2.722179E1,-3.1438294E-1,-7.1964516E1,-5.3802685E1,6.6578865E1,-1.35256405E1,-1.1429189E2,-3.332263E1,-6.778664E1,1.8955484E1,-4.0915225E2,-1.967673E2,-7.937753E1,-3.5412952E1,-7.05047E1,-2.0317297E2,-6.8287605E1,-9.784635E0,4.296733E1,-1.1930474E1,4.5710823E1,1.20495094E2,3.9989618E2,-3.8543794E0,5.326E2,1.5879689E2,5.2497687E2,8.6363525E1,-4.799387E0,-2.8161215E1,-1.4714015E1,-1.6334368E1,1.5101121E1,-2.5524183E1,6.0617825E1,-2.7834513E1,6.0039925E1,-6.4898806E0,-9.062385E0,-3.4098576E1,-2.1091385E2,-7.4248116E1,-6.138168E1,-1.3857881E1,2.941859E2,1.010886E2,-8.69812E1,3.1855364E1,-2.9363801E0,-5.6963318E1,2.2809692E1,3.2116528E1,1.6444675E1,4.349323E0,-2.275218E1,-5.519385E0,-3.0766299E0,-1.3115388E1,4.1230312E1,-5.4080757E1,4.6726364E1,-4.246138E1,-4.3644995E2,-1.4169739E2,-2.2824214E2,1.1012887E2,-1.3152576E1,-4.0180332E1,-1.533995E1,5.028184E1,6.8546326E1,1.7149366E1,8.1947687E2,3.5922607E2,2.3326824E1,1.0062468E2,1.5325867E2,-4.742676E0,-2.9988138E1,4.9191194E0,-5.8366337E0,-4.2613223E-1,-8.483387E0,-3.652718E1,4.9366055E1,3.7303622E0,3.6358705E0,1.7136177E1,-1.8570137E1,-1.0006348E0,1.01306564E2,-1.2152074E1,3.8660862E1,-8.25587E1,-7.2420586E1,-2.8302656E1,1.776362E1,-3.5450073E1,-5.3440742E1,-1.2048951E2,2.6974375E1,-2.1953797E0,-2.7013276E0,1.8686323E1,1.415533E2,1.4881367E1,3.8369257E2,4.9221134E0,1.0270319E1,3.0572123E1,-5.8763123E0,1.1961182E0,1.7283175E1,3.4236147E0,-2.608712E2,-4.8253365E1,3.466882E1,-1.9835246E2,6.1564125E1,6.720621E0,-4.6455883E1,-1.2240134E1,-1.9801143E2,8.678328E0,-1.5476722E1,-3.773916E1,-3.405433E1,-6.145633E0,-1.5665318E1,9.655108E0],"categories":[],"categories_nodes":[],"categories_segments":[],"categories_sizes":[],"default_left":[0,0,0,0,0,0,0,0,0,0,0,0,0,0,0,0,0,0,0,0,0,0,0,0,0,0,0,0,0,0,0,0,0,0,0,0,0,0,0,0,0,0,0,0,0,0,0,0,0,0,0,0,0,0,0,0,0,0,0,0,0,0,0,0,0,0,0,0,0,0,0,0,0,0,0,0,0,0,0,0,0,0,0,0,0,0,0,0,0,0,0,0,0,0,0,0,0,0,0,0,0,0,0,0,0,0,0,0,0,0,0,0,0,0,0,0,0,0,0,0,0,0,0,0,0,0,0,0,0,0,0,0,0,0,0,0,0,0,0,0,0,0,0,0,0,0,0,0,0,0,0,0,0,0,0,0,0,0,0,0,0,0,0,0,0,0,0,0,0,0,0,0,0,0,0,0,0,0,0,0,0,0,0,0,0,0,0,0,0,0,0,0,0,0,0,0,0,0,0,0,0,0,0,0,0,0,0,0,0,0,0,0,0,0,0,0,0,0,0,0,0,0,0,0,0,0,0,0,0,0,0,0,0,0,0,0,0,0,0,0,0,0,0,0,0,0,0,0,0,0,0,0,0,0,0,0,0,0,0,0,0,0,0,0,0,0,0,0,0,0,0,0,0,0,0,0,0,0,0,0,0,0,0,0,0,0,0,0,0,0,0,0,0,0,0,0,0,0,0,0,0,0,0,0,0,0,0,0,0,0,0,0,0,0,0,0,0,0,0,0,0,0,0,0,0,0,0,0,0,0,0,0,0,0,0,0,0,0,0,0,0,0,0,0,0,0,0,0,0,0,0,0,0,0,0,0,0,0,0,0,0,0,0,0,0,0,0,0,0,0,0,0,0,0,0,0,0,0,0,0,0,0,0,0,0,0,0,0,0,0,0,0,0,0,0,0,0,0,0,0,0,0,0,0,0,0,0,0,0,0,0,0,0,0,0,0,0,0,0,0,0,0,0,0,0,0,0,0,0,0,0,0,0,0,0,0,0,0,0,0,0,0,0,0,0,0,0,0,0,0,0,0,0,0,0,0,0,0,0,0,0,0,0,0,0,0,0,0,0,0,0,0,0,0,0,0,0,0,0,0,0,0,0,0,0,0,0,0,0,0,0,0,0,0,0,0,0,0,0,0,0],"id":0,"left_children":[1,3,5,7,9,11,13,15,17,19,21,23,25,27,29,31,33,35,37,39,41,43,45,47,49,51,-1,53,55,57,-1,-1,59,61,63,65,67,69,71,73,75,77,79,-1,81,-1,-1,83,85,87,89,91,93,95,97,-1,-1,-1,-1,99,101,103,105,107,109,111,-1,113,-1,115,117,119,121,-1,123,125,-1,127,129,131,133,-1,135,137,139,141,143,145,-1,-1,147,-1,149,151,-1,153,155,-1,-1,157,-1,159,161,163,165,167,169,-1,171,173,175,-1,-1,177,179,181,183,185,187,189,191,193,195,-1,-1,197,199,201,-1,203,-1,205,207,209,211,213,215,217,-1,219,221,223,225,227,229,-1,231,-1,-1,233,235,237,239,241,-1,243,-1,-1,-1,-1,245,247,249,251,253,255,257,259,261,263,-1,-1,265,267,269,-1,-1,271,273,-1,-1,-1,-1,275,-1,277,279,281,283,285,-1,-1,287,289,291,293,295,297,299,-1,-1,301,303,-1,-1,305,307,309,311,-1,313,315,-1,-1,-1,-1,-1,-1,317,319,321,323,-1,-1,325,327,329,331,333,-1,-1,335,337,-1,-1,-1,-1,-1,-1,-1,339,341,-1,-1,-1,-1,-1,343,345,-1,347,349,351,353,355,-1,357,-1,359,361,-1,-1,-1,363,-1,-1,365,-1,367,-1,369,-1,-1,-1,-1,-1,371,-1,-1,-1,-1,-1,-1,-1,-1,373,375,-1,-1,377,379,-1,-1,-1,381,-1,-1,-1,-1,-1,-1,-1,383,-1,385,-1,-1,-1,-1,-1,387,389,-1,391,393,-1,-1,-1,-1,-1,-1,-1,-1,395,397,-1,-1,-1,399,-1,-1,-1,401,403,405,-1,407,-1,-1,-1,-1,-1,-1,-1,-1,409,-1,411,-1,-1,413,-1,-1,415,417,419,421,-1,-1,-1,-1,423,-1,-1,-1,-1,-1,425,-1,-1,-1,-1,-1,427,-1,-1,429,-1,-1,-1,431,433,435,-1,-1,-1,437,-1,-1,-1,439,-1,-1,441,-1,443,-1,445,447,-1,-1,-1,449,-1,-1,-1,451,-1,-1,-1,-1,453,-1,-1,-1,455,457,459,-1,-1,-1,461,-1,-1,-1,-1,-1,-1,-1,-1,463,-1,-1,465,467,469,471,-1,-1,-1,473,-1,-1,475,477,-1,-1,479,-1,481,-1,-1,-1,-1,-1,-1,-1,-1,-1,-1,-1,483,-1,-1,485,-1,-1,-1,-1,-1,487,-1,-1,-1,-1,-1,-1,489,-1,-1,-1,-1,-1,-1,-1,491,493,-1,495,-1,-1,-1,-1,497,499,-1,-1,-1,-1,-1,-1],"loss_changes":[4.7689398E8,6.711238E7,1.0725302E8,2.796136E7,1.4223711E7,2.3581968E7,2.6021312E7,6.0324E6,1.433376E7,5.46353E6,3.604284E6,7.777012E6,5.663736E6,7.531584E6,1.91288E6,1.224953E6,1.9813636E6,3.563824E6,6.249176E6,1.83161E6,6.144629E6,7.5933075E5,3.9404E5,1.8651848E7,4.186288E6,1.80456E6,0E0,5.558072E6,3.29884E6,2.992E4,0E0,0E0,4.90578E5,1.04670225E6,1.531928E6,8.46048E5,5.4062E5,5.79196E6,2.878994E6,1.0053921E5,1.4615905E6,1.090487E6,2.4082122E6,0E0,8.8911475E5,0E0,0E0,2.849414E6,3.8079535E6,5.3172575E5,2.93242E5,3.030076E6,1.0067445E6,3.130808E6,7.8846E4,0E0,0E0,0E0,0E0,3.666365E5,2.737795E5,1.2388162E6,1.9351844E5,8.22896E5,5.8121294E5,3.694982E5,0E0,6.64866E5,0E0,2.9439856E5,3.684532E6,6.2057925E5,4.880952E6,0E0,1.2064927E5,2.28394E5,0E0,4.81976E5,5.792549E5,6.952659E5,5.35735E5,0E0,1.029835E5,3.8928975E5,1.34571E6,1.152266E6,6.6500506E5,1.54538E5,0E0,0E0,4.17739E5,0E0,1.179692E6,1.8308575E5,0E0,4.9918728E5,9.95923E5,0E0,0E0,1.1685E3,0E0,2.2888375E5,2.3128262E5,4.929835E5,4.3421525E5,1.7373419E5,1.3185994E5,0E0,1.9679319E5,6.951194E5,4.784275E4,0E0,0E0,7.48052E5,2.6552969E3,2.200625E2,2.1734028E5,6.31892E5,5.29202E5,4.8388022E5,2.2879088E5,1.135936E6,1.4789045E6,0E0,0E0,6.1813794E5,9.247531E4,1.851275E5,0E0,2.9115781E4,0E0,1.947806E5,1.46727E6,3.3211925E5,7.330821E5,5.357722E3,1.5340316E5,3.281119E5,0E0,2.9200906E5,1.170516E6,3.409625E5,6.5385188E4,2.738237E5,6.7732125E4,0E0,4.2111E4,0E0,0E0,3.480165E5,1.035502E6,3.6771064E3,8.945825E4,1.01851516E5,0E0,9.073969E3,0E0,0E0,0E0,0E0,5.5234E4,7.07985E4,1.18695625E5,1.2567419E5,4.1792628E5,1.9534975E5,5.8071125E5,6.570695E4,1.6844652E5,4.5888438E4,0E0,0E0,2.9307438E4,6.0743812E4,3.323363E5,0E0,0E0,4.13028E5,4.4026094E5,0E0,0E0,0E0,0E0,7.339851E4,0E0,1.56068E5,7.1878E4,1.8480744E5,3.1086059E4,3.2940534E5,0E0,0E0,2.868055E5,5.73076E5,9.415219E5,1.218765E6,5.4642744E5,4.3811E4,3.1572516E4,0E0,0E0,6.3449E4,2.4827475E5,0E0,0E0,5.9128375E4,2.0491506E4,6.32719E5,1.6474494E5,0E0,1.364945E5,3.198E3,0E0,0E0,0E0,0E0,0E0,0E0,2.9289812E4,2.024456E3,9.366925E4,7.8007E5,0E0,0E0,4.48455E4,2.0032875E4,2.186665E2,1.6768222E5,1.9476084E5,0E0,0E0,1.4986419E5,1.2381E5,0E0,0E0,0E0,0E0,0E0,0E0,0E0,5.720225E4,3.9858E4,0E0,0E0,0E0,0E0,0E0,2.0159176E4,4.0881719E3,0E0,5.580375E4,7.473294E4,2.5985542E3,7.8706375E4,7.791912E5,0E0,1.7503156E4,0E0,1.40051875E4,1.8966594E4,0E0,0E0,0E0,4.6526336E4,0E0,0E0,2.1454365E3,0E0,4.1551797E3,0E0,2.5448406E4,0E0,0E0,0E0,0E0,0E0,2.871911E4,0E0,0E0,0E0,0E0,0E0,0E0,0E0,0E0,6.7675E4,3.8437525E5,0E0,0E0,1.36E2,2.3019152E5,0E0,0E0,0E0,5.72946E5,0E0,0E0,0E0,0E0,0E0,0E0,0E0,4.9798E4,0E0,8.213025E4,0E0,0E0,0E0,0E0,0E0,8.818725E4,1.9603419E5,0E0,3.19145E4,1.6160806E5,0E0,0E0,0E0,0E0,0E0,0E0,0E0,0E0,1.031061E6,4.7521662E5,0E0,0E0,0E0,1.0714141E4,0E0,0E0,0E0,1.672543E4,8.324391E4,2.3739853E5,0E0,1.8583388E5,0E0,0E0,0E0,0E0,0E0,0E0,0E0,0E0,1.7722969E3,0E0,2.6369375E4,0E0,0E0,2.07095E4,0E0,0E0,6.2333812E4,1.0619127E5,9.590931E4,1.1364467E5,0E0,0E0,0E0,0E0,4.5711953E3,0E0,0E0,0E0,0E0,0E0,1.8655859E3,0E0,0E0,0E0,0E0,0E0,5.9479297E2,0E0,0E0,2.8387006E5,0E0,0E0,0E0,3.5326178E5,2.155905E5,2.666237E5,0E0,0E0,0E0,2.8813906E4,0E0,0E0,0E0,5.572216E4,0E0,0E0,1.29543125E4,0E0,6.008875E5,0E0,2.1900575E5,5.2199984E4,0E0,0E0,0E0,5.6789595E3,0E0,0E0,0E0,7.199751E2,0E0,0E0,0E0,0E0,6.3565156E3,0E0,0E0,0E0,6.7054125E4,2.2847344E3,8.0451426E3,0E0,0E0,0E0,7.3405805E4,0E0,0E0,0E0,0E0,0E0,0E0,0E0,0E0,2.0775833E5,0E0,0E0,2.99389E5,1.5107245E5,2.7436988E5,2.8720371E4,0E0,0E0,0E0,3.2684844E4,0E0,0E0,4.4317225E5,9.12295E4,0E0,0E0,3.1914688E3,0E0,2.4050078E3,0E0,0E0,0E0,0E0,0E0,0E0,0E0,0E0,0E0,0E0,0E0,2.8304414E3,0E0,0E0,1.097535E5,0E0,0E0,0E0,0E0,0E0,4.291332E5,0E0,0E0,0E0,0E0,0E0,0E0,9.0333E4,0E0,0E0,0E0,0E0,0E0,0E0,0E0,9.915469E2,1.5518605E5,0E0,3.4848094E4,0E0,0E0,0E0,0E0,1.3482984E4,9.491102E4,0E0,0E0,0E0,0E0,0E0,0E0],"parents":[2147483647,0,0,1,1,2,2,3,3,4,4,5,5,6,6,7,7,8,8,9,9,10,10,11,11,12,12,13,13,14,14,15,15,16,16,17,17,18,18,19,19,20,20,21,21,22,22,23,23,24,24,25,25,27,27,28,28,29,29,32,32,33,33,34,34,35,35,36,36,37,37,38,38,39,39,40,40,41,41,42,42,44,44,47,47,48,48,49,49,50,50,51,51,52,52,53,53,54,54,59,59,60,60,61,61,62,62,63,63,64,64,65,65,67,67,69,69,70,70,71,71,72,72,74,74,75,75,77,77,78,78,79,79,80,80,82,82,83,83,84,84,85,85,86,86,87,87,90,90,92,92,93,93,95,95,96,96,99,99,101,101,102,102,103,103,104,104,105,105,106,106,108,108,109,109,110,110,113,113,114,114,115,115,116,116,117,117,118,118,119,119,120,120,121,121,122,122,125,125,126,126,127,127,129,129,131,131,132,132,133,133,134,134,135,135,136,136,137,137,139,139,140,140,141,141,142,142,143,143,144,144,146,146,149,149,150,150,151,151,152,152,153,153,155,155,160,160,161,161,162,162,163,163,164,164,165,165,166,166,167,167,168,168,169,169,172,172,173,173,174,174,177,177,178,178,183,183,185,185,186,186,187,187,188,188,189,189,192,192,193,193,194,194,195,195,196,196,197,197,198,198,201,201,202,202,205,205,206,206,207,207,208,208,210,210,211,211,218,218,219,219,220,220,221,221,224,224,225,225,226,226,227,227,228,228,231,231,232,232,240,240,241,241,247,247,248,248,250,250,251,251,252,252,253,253,254,254,256,256,258,258,259,259,263,263,266,266,268,268,270,270,276,276,285,285,286,286,289,289,290,290,294,294,302,302,304,304,310,310,311,311,313,313,314,314,323,323,324,324,328,328,332,332,333,333,334,334,336,336,345,345,347,347,350,350,353,353,354,354,355,355,356,356,361,361,367,367,373,373,376,376,380,380,381,381,382,382,386,386,390,390,393,393,395,395,397,397,398,398,402,402,406,406,411,411,415,415,416,416,417,417,421,421,430,430,433,433,434,434,435,435,436,436,440,440,443,443,444,444,447,447,449,449,461,461,464,464,470,470,477,477,485,485,486,486,488,488,493,493,494,494],"right_children":[2,4,6,8,10,12,14,16,18,20,22,24,26,28,30,32,34,36,38,40,42,44,46,48,50,52,-1,54,56,58,-1,-1,60,62,64,66,68,70,72,74,76,78,80,-1,82,-1,-1,84,86,88,90,92,94,96,98,-1,-1,-1,-1,100,102,104,106,108,110,112,-1,114,-1,116,118,120,122,-1,124,126,-1,128,130,132,134,-1,136,138,140,142,144,146,-1,-1,148,-1,150,152,-1,154,156,-1,-1,158,-1,160,162,164,166,168,170,-1,172,174,176,-1,-1,178,180,182,184,186,188,190,192,194,196,-1,-1,198,200,202,-1,204,-1,206,208,210,212,214,216,218,-1,220,222,224,226,228,230,-1,232,-1,-1,234,236,238,240,242,-1,244,-1,-1,-1,-1,246,248,250,252,254,256,258,260,262,264,-1,-1,266,268,270,-1,-1,272,274,-1,-1,-1,-1,276,-1,278,280,282,284,286,-1,-1,288,290,292,294,296,298,300,-1,-1,302,304,-1,-1,306,308,310,312,-1,314,316,-1,-1,-1,-1,-1,-1,318,320,322,324,-1,-1,326,328,330,332,334,-1,-1,336,338,-1,-1,-1,-1,-1,-1,-1,340,342,-1,-1,-1,-1,-1,344,346,-1,348,350,352,354,356,-1,358,-1,360,362,-1,-1,-1,364,-1,-1,366,-1,368,-1,370,-1,-1,-1,-1,-1,372,-1,-1,-1,-1,-1,-1,-1,-1,374,376,-1,-1,378,380,-1,-1,-1,382,-1,-1,-1,-1,-1,-1,-1,384,-1,386,-1,-1,-1,-1,-1,388,390,-1,392,394,-1,-1,-1,-1,-1,-1,-1,-1,396,398,-1,-1,-1,400,-1,-1,-1,402,404,406,-1,408,-1,-1,-1,-1,-1,-1,-1,-1,410,-1,412,-1,-1,414,-1,-1,416,418,420,422,-1,-1,-1,-1,424,-1,-1,-1,-1,-1,426,-1,-1,-1,-1,-1,428,-1,-1,430,-1,-1,-1,432,434,436,-1,-1,-1,438,-1,-1,-1,440,-1,-1,442,-1,444,-1,446,448,-1,-1,-1,450,-1,-1,-1,452,-1,-1,-1,-1,454,-1,-1,-1,456,458,460,-1,-1,-1,462,-1,-1,-1,-1,-1,-1,-1,-1,464,-1,-1,466,468,470,472,-1,-1,-1,474,-1,-1,476,478,-1,-1,480,-1,482,-1,-1,-1,-1,-1,-1,-1,-1,-1,-1,-1,484,-1,-1,486,-1,-1,-1,-1,-1,488,-1,-1,-1,-1,-1,-1,490,-1,-1,-1,-1,-1,-1,-1,492,494,-1,496,-1,-1,-1,-1,498,500,-1,-1,-1,-1,-1,-1],"split_conditions":[4.7730866E-1,6.0080457E-1,1.400442E0,-8.3874685E-1,1.517716E0,5.5547565E-1,8.029543E-1,-5.48195E-1,-2.0744812E-3,-9.829365E-1,1.670359E-1,1.4952861E0,1.3453361E0,1.9655068E0,2.0802479E0,-2.7455647E0,-9.9287456E-1,-1.9618516E-1,-5.4019856E-1,-2.8844982E-1,-2.0744812E-3,-6.008571E-1,6.2529993E0,9.9616593E-1,9.817091E-1,1.032962E0,2.2606618E2,1.4952861E0,-1.9507427E0,4.9594097E0,1.670836E2,-1.4274573E2,-1.3528534E0,-5.0119466E-1,-5.0119466E-1,-8.1402457E-1,-7.256531E-1,-6.163169E-1,-4.6229452E-1,-1.3867272E0,8.2484806E-1,9.965058E-1,6.6135246E-1,-1.1477074E1,-5.823238E-1,1.7289046E2,3.237736E1,5.6553966E-1,9.817091E-1,2.658992E-1,5.175513E-1,-9.294481E-1,1.4952861E0,-8.124131E-1,-2.0508904E0,1.317353E2,2.5918753E2,3.657083E2,1.98649E2,-2.0744812E-3,9.94198E-1,-1.1609613E0,3.108371E-1,-9.0097386E-1,4.3319348E-1,9.94198E-1,-1.507083E2,8.3348906E-1,-1.1524955E2,-2.0508904E0,3.7125587E-1,1.0689433E0,2.0136069E-1,2.3902369E1,-1.0353659E0,-5.0119466E-1,8.092799E1,4.4033885E0,1.0118679E0,-6.033061E-1,-3.0075717E-1,1.2728418E2,4.7913578E-1,1.2796918E0,-1.4408524E0,-2.2927865E-1,-1.1328822E-2,4.8526263E-1,-8.136571E0,1.6679977E2,-2.862409E-1,-5.7528137E1,5.9531873E-1,5.2931666E-1,1.457605E2,4.9594097E0,-8.15857E-1,6.433937E1,2.3303813E2,-7.1903354E-1,1.2658631E0,-1.1609613E0,-8.654012E-1,-2.502812E-1,-2.7890688E-1,2.1909732E-1,4.5653233E-1,-1.02400444E2,4.5950943E-1,-2.0744812E-3,-3.8120613E-1,1.2269871E1,-7.92317E1,5.5547565E-1,1.2230498E0,2.0802479E0,1.2635199E0,-1.1443597E0,4.3911913E-1,9.962429E0,2.1197376E-1,2.4354412E-1,4.3319348E-1,-2.0070541E1,1.5188325E1,-1.3560528E0,-2.7890688E-1,1.1376467E0,2.0884369E1,-1.0003148E0,-4.80257E1,6.817258E-2,-4.9303167E-2,6.422557E-1,1.19485825E-1,4.9704573E-1,2.8808038E0,-3.2142025E-1,-3.5155678E1,-1.7651899E0,8.126216E-1,-1.2577784E0,2.7892575E-1,1.2260871E0,3.108371E-1,-1.763855E-1,1.2230498E0,6.467395E1,1.3259496E2,5.8668E-1,4.7913578E-1,1.2796918E0,1.2230498E0,-2.7890688E-1,5.6204124E1,-3.2142025E-1,1.3575868E2,-9.298817E1,-2.6809635E1,-3.8919235E1,1.2796918E0,-1.3690902E-1,-1.1474588E0,6.164146E-1,5.649909E-1,1.524286E-1,-1.0003148E0,-1.4320184E-1,4.0339968E-1,-1.1295141E0,-9.009888E0,-6.082732E1,1.4734656E-1,2.2771993E-1,-8.845103E-1,1.0495368E1,6.509461E1,-1.3690902E-1,-5.0119466E-1,-3.0659075E1,-1.1292175E1,-4.684632E1,-1.3039637E1,-8.1402457E-1,-4.1273384E1,-2.4213853E0,-4.438582E-1,4.7913578E-1,9.94198E-1,-7.85647E-1,-8.0492386E1,1.3048645E0,4.1096252E-1,6.2529993E0,3.7382266E-1,-5.316723E-1,3.5842067E-1,1.0657933E0,-1.1295141E0,1.8381134E0,5.475768E1,-1.0364091E0,-9.0097386E-1,1.1496186E0,3.039369E1,8.467659E-1,-3.2142025E-1,6.422557E-1,3.3957694E0,1.3764326E1,-2.7890688E-1,7.152779E-1,6.81538E1,-5.396384E0,5.583618E0,5.375079E1,-6.3481297E0,-1.839518E1,-1.4320184E-1,4.7913578E-1,4.9594097E0,7.235478E-1,1.6097552E2,-1.11097404E2,8.5430527E-1,-1.1889474E-1,-3.8120613E-1,-1.044477E0,-9.833736E-1,1.6923685E1,4.8345627E1,5.1581424E-1,-2.0079458E0,1.0762121E2,6.6201143E0,2.0441002E2,2.163512E1,1.4112617E1,1.3626161E0,9.697367E0,1.4184315E0,9.962429E0,5.315863E0,1.0649863E1,4.4510803E1,-9.3669014E1,-2.1801132E1,-3.3626825E-1,-9.500847E-1,-1.5796326E0,-5.0119466E-1,8.520378E-1,-1.0003148E0,-2.7890688E-1,7.759537E-1,-6.8304245E1,2.562428E0,4.6693817E1,4.7913578E-1,-1.0660404E0,-9.941382E0,-3.7972183E1,2.0196617E1,5.649909E-1,4.879196E1,-2.7221453E1,1.2230498E0,-4.639959E1,2.562428E0,-3.7203133E1,-3.2142025E-1,-1.0779281E2,-2.2320679E1,-5.2371887E1,4.7201122E1,-7.6471806E0,4.0854836E0,-4.6701885E1,-1.8504755E2,-7.7348595E1,-1.3097205E2,1.2021149E0,-6.727048E1,2.1991322E1,-4.7603855E0,-1.1361623E0,-7.317215E-1,-9.398683E1,-2.0573823E0,9.962429E0,-3.411559E-1,5.227036E1,-6.486568E1,7.3959625E1,3.4256542E-1,7.884932E1,-9.065452E0,4.4241386E1,4.564371E0,-3.4661015E1,-2.594385E0,-1.5777887E1,-2.945766E-1,1.623437E1,-7.85647E-1,6.824432E1,1.117262E1,-1.1019132E1,1.0455616E1,3.5154613E1,1.4168941E0,-6.328582E-1,5.916961E1,7.173303E-1,8.945756E-1,-2.7148638E1,-1.0336323E1,4.8014526E1,8.649619E0,-2.1998842E0,-1.350163E1,5.976548E1,4.4976196E0,4.6362582E-1,2.797874E-2,-6.3224712E1,-1.2719385E1,-1.040387E0,-3.2142025E-1,7.789371E0,1.8163697E0,-4.5769325E1,8.8143516E-1,1.2230498E0,-6.867836E-1,-1.0020886E1,1.2796918E0,3.1925488E1,7.760196E1,7.1001335E1,1.4176365E1,-5.2776676E1,-7.926883E0,4.1806736E0,-1.2256184E1,1.2230498E0,-7.575888E0,-1.0003148E0,-1.0683133E1,-1.0498676E1,2.0802479E0,5.364615E0,-2.4631348E0,5.175513E-1,-1.2963015E0,-2.3859975E-1,1.2230498E0,-2.8009714E1,-2.904886E0,-4.17377E1,-8.765388E0,-1.1365199E0,3.2654427E1,2.7682882E1,-4.172388E0,-9.312177E0,-1.7771729E0,7.6021576E-1,-3.7478852E0,3.9551487E1,5.8963623E0,2.722179E1,-3.1438294E-1,1.2796918E0,-5.3802685E1,6.6578865E1,-3.8397992E-1,-1.1429189E2,-3.332263E1,-6.778664E1,-3.2121307E-1,6.2529993E0,2.0802479E0,-7.937753E1,-3.5412952E1,-7.05047E1,8.55298E-2,-6.8287605E1,-9.784635E0,4.296733E1,2.207803E-1,4.5710823E1,1.20495094E2,1.2230498E0,-3.8543794E0,-8.981816E-1,1.5879689E2,-5.67632E-1,4.6362582E-1,-4.799387E0,-2.8161215E1,-1.4714015E1,-2.7890688E-1,1.5101121E1,-2.5524183E1,6.0617825E1,-3.2142025E-1,6.0039925E1,-6.4898806E0,-9.062385E0,-3.4098576E1,-5.56948E-1,-7.4248116E1,-6.138168E1,-1.3857881E1,4.176824E-1,-4.9941272E-1,-1.0003148E0,3.1855364E1,-2.9363801E0,-5.6963318E1,-6.008571E-1,3.2116528E1,1.6444675E1,4.349323E0,-2.275218E1,-5.519385E0,-3.0766299E0,-1.3115388E1,4.1230312E1,-8.0893266E-1,4.6726364E1,-4.246138E1,1.885328E-1,-3.5052514E-1,-1.738338E-1,9.9616593E-1,-1.3152576E1,-4.0180332E1,-1.533995E1,1.0736514E0,6.8546326E1,1.7149366E1,4.4033885E0,4.0854836E0,2.3326824E1,1.0062468E2,7.350734E-1,-4.742676E0,4.7913578E-1,4.9191194E0,-5.8366337E0,-4.2613223E-1,-8.483387E0,-3.652718E1,4.9366055E1,3.7303622E0,3.6358705E0,1.7136177E1,-1.8570137E1,-1.0006348E0,8.6806667E-1,-1.2152074E1,3.8660862E1,-5.879203E-1,-7.2420586E1,-2.8302656E1,1.776362E1,-3.5450073E1,-5.3440742E1,-1.4201683E-1,2.6974375E1,-2.1953797E0,-2.7013276E0,1.8686323E1,1.415533E2,1.4881367E1,9.962429E0,4.9221134E0,1.0270319E1,3.0572123E1,-5.8763123E0,1.1961182E0,1.7283175E1,3.4236147E0,-3.2142025E-1,-1.4201683E-1,3.466882E1,3.7125587E-1,6.1564125E1,6.720621E0,-4.6455883E1,-1.2240134E1,1.2554148E0,-7.0363486E-1,-1.5476722E1,-3.773916E1,-3.405433E1,-6.145633E0,-1.5665318E1,9.655108E0],"split_indices":[28,27,28,28,27,27,27,27,0,28,25,0,27,28,1,27,28,27,27,26,0,29,19,0,28,15,0,0,27,12,0,0,26,0,0,28,28,28,28,28,27,26,25,0,28,0,0,28,28,25,25,25,0,27,27,0,0,0,0,0,5,28,25,28,27,5,0,26,0,27,28,23,28,0,28,0,0,3,25,28,28,0,1,1,27,27,27,28,0,0,27,0,28,28,0,12,26,0,0,27,0,28,27,27,23,27,27,0,26,0,25,0,0,27,2,1,25,27,28,13,25,27,27,0,0,28,23,27,0,0,0,25,28,27,28,0,1,1,0,26,28,27,27,28,25,0,2,0,0,28,1,1,2,23,0,1,0,0,0,0,1,29,28,25,26,27,0,23,27,28,0,0,27,27,25,0,0,29,0,0,0,0,0,28,0,25,28,1,5,25,0,0,27,19,27,27,28,25,28,0,0,26,28,0,0,27,1,27,9,0,23,25,0,0,0,0,0,0,23,1,12,28,0,0,28,27,25,27,25,0,0,28,27,0,0,0,0,0,0,0,26,13,0,0,0,0,0,25,28,0,0,14,0,23,26,0,4,0,1,28,0,0,0,26,0,0,2,0,4,0,1,0,0,0,0,0,6,0,0,0,0,0,0,0,0,25,25,0,0,13,27,0,0,0,28,0,0,0,0,0,0,0,28,0,25,0,0,0,0,0,27,25,0,27,27,0,0,0,0,0,0,0,0,25,27,0,0,0,1,0,0,0,26,2,25,0,1,0,0,0,0,0,0,0,0,2,0,0,0,0,1,0,0,25,28,27,2,0,0,0,0,28,0,0,0,0,0,25,0,0,0,0,0,1,0,0,27,0,0,0,27,19,1,0,0,0,26,0,0,0,28,0,0,2,0,27,0,27,25,0,0,0,23,0,0,0,1,0,0,0,0,26,0,0,0,27,26,0,0,0,0,29,0,0,0,0,0,0,0,0,28,0,0,27,27,27,0,0,0,0,27,0,0,3,6,0,0,7,0,1,0,0,0,0,0,0,0,0,0,0,0,25,0,0,25,0,0,0,0,0,27,0,0,0,0,0,0,13,0,0,0,0,0,0,0,1,27,0,28,0,0,0,0,26,28,0,0,0,0,0,0],"split_type":[0,0,0,0,0,0,0,0,0,0,0,0,0,0,0,0,0,0,0,0,0,0,0,0,0,0,0,0,0,0,0,0,0,0,0,0,0,0,0,0,0,0,0,0,0,0,0,0,0,0,0,0,0,0,0,0,0,0,0,0,0,0,0,0,0,0,0,0,0,0,0,0,0,0,0,0,0,0,0,0,0,0,0,0,0,0,0,0,0,0,0,0,0,0,0,0,0,0,0,0,0,0,0,0,0,0,0,0,0,0,0,0,0,0,0,0,0,0,0,0,0,0,0,0,0,0,0,0,0,0,0,0,0,0,0,0,0,0,0,0,0,0,0,0,0,0,0,0,0,0,0,0,0,0,0,0,0,0,0,0,0,0,0,0,0,0,0,0,0,0,0,0,0,0,0,0,0,0,0,0,0,0,0,0,0,0,0,0,0,0,0,0,0,0,0,0,0,0,0,0,0,0,0,0,0,0,0,0,0,0,0,0,0,0,0,0,0,0,0,0,0,0,0,0,0,0,0,0,0,0,0,0,0,0,0,0,0,0,0,0,0,0,0,0,0,0,0,0,0,0,0,0,0,0,0,0,0,0,0,0,0,0,0,0,0,0,0,0,0,0,0,0,0,0,0,0,0,0,0,0,0,0,0,0,0,0,0,0,0,0,0,0,0,0,0,0,0,0,0,0,0,0,0,0,0,0,0,0,0,0,0,0,0,0,0,0,0,0,0,0,0,0,0,0,0,0,0,0,0,0,0,0,0,0,0,0,0,0,0,0,0,0,0,0,0,0,0,0,0,0,0,0,0,0,0,0,0,0,0,0,0,0,0,0,0,0,0,0,0,0,0,0,0,0,0,0,0,0,0,0,0,0,0,0,0,0,0,0,0,0,0,0,0,0,0,0,0,0,0,0,0,0,0,0,0,0,0,0,0,0,0,0,0,0,0,0,0,0,0,0,0,0,0,0,0,0,0,0,0,0,0,0,0,0,0,0,0,0,0,0,0,0,0,0,0,0,0,0,0,0,0,0,0,0,0,0,0,0,0,0,0,0,0,0,0,0,0,0,0,0,0,0,0,0,0,0,0,0,0,0,0,0,0,0,0,0,0,0,0,0,0,0,0,0,0,0,0,0,0,0,0],"sum_hessian":[1.203E3,8.36E2,3.67E2,6.64E2,1.72E2,2.34E2,1.33E2,1.8E2,4.84E2,1.45E2,2.7E1,1.71E2,6.3E1,8.7E1,4.6E1,5.6E1,1.24E2,2.41E2,2.43E2,4.9E1,9.6E1,1.2E1,1.5E1,1.21E2,5E1,4.3E1,2E1,3.9E1,4.8E1,4.2E1,4E0,5E0,5.1E1,8.3E1,4.1E1,1.22E2,1.19E2,7.9E1,1.64E2,1.2E1,3.7E1,4.9E1,4.7E1,3E0,9E0,1.4E1,1E0,6.1E1,6E1,2.2E1,2.8E1,2.3E1,2E1,2.7E1,1.2E1,9E0,3.9E1,3.8E1,4E0,1.8E1,3.3E1,5.8E1,2.5E1,2E1,2.1E1,4E0,1.18E2,2.8E1,9.1E1,1.2E1,6.7E1,3.3E1,1.31E2,1E0,1.1E1,1.4E1,2.3E1,4.1E1,8E0,2.8E1,1.9E1,3E0,6E0,1E1,5.1E1,3E1,3E1,1.9E1,3E0,1.2E1,1.6E1,1E0,2.2E1,1.6E1,4E0,5E0,2.2E1,1E0,1.1E1,1.7E1,1E0,1.4E1,1.9E1,3.8E1,2E1,1.2E1,1.3E1,9E0,1.1E1,1.9E1,2E0,1E0,3E0,2.3E1,5E0,4E0,8E0,5.8E1,9E0,2.8E1,5E0,6.4E1,6.7E1,9E0,2E0,1E1,4E0,4E1,1E0,5E0,3E0,5E0,2.3E1,1.2E1,7E0,2E0,4E0,8E0,2E0,7E0,4.4E1,2.2E1,8E0,2E1,1E1,1E0,1.8E1,7E0,9E0,8E0,1.4E1,2E0,1.4E1,4E0,1E0,4E0,1.8E1,1.6E1,1E0,7E0,7E0,1E1,9E0,7E0,3.1E1,1.4E1,6E0,9E0,3E0,1.2E1,1E0,4E0,7E0,1.3E1,6E0,1E0,1E0,2.1E1,2E0,3E0,2E0,3E0,1E0,7E0,1E0,1.5E1,4.3E1,6E0,3E0,2.7E1,1E0,1E0,4E0,5.1E1,1.3E1,6.2E1,5E0,5E0,5E0,1E0,3E0,3E1,1E1,1E0,4E0,3E0,2E0,1.2E1,1.1E1,2E0,1E1,4E0,3E0,1E0,1E0,3E0,1E0,2E0,6E0,2E0,5E0,3.4E1,1E1,8E0,1.4E1,6E0,2E0,1.3E1,7E0,4E0,6E0,5E0,1.3E1,7E0,1E0,1.3E1,1E0,1E0,1E0,1E0,1.3E1,3E0,1E0,1E0,3E0,6E0,1E0,5E0,5E0,1E0,8E0,5E0,2E0,1.4E1,1.7E1,9E0,5E0,2E0,4E0,8E0,1E0,2E0,1E0,5E0,7E0,3E0,4E0,9E0,4E0,1E0,5E0,1.9E1,2E0,1E0,1E0,2E0,5E0,1E0,1.4E1,6E0,3.7E1,1E0,5E0,2E0,1E0,4E0,2.3E1,3E0,1E0,4.8E1,3E0,1E0,1.2E1,1E0,6.1E1,2E0,3E0,4E0,1E0,4E0,1E0,1E0,2.9E1,1E0,9E0,2E0,1E0,1E0,1E0,1E0,1.1E1,1E1,1E0,6E0,4E0,1E0,3E0,5E0,1E0,1E0,1E0,4E0,1E0,2.4E1,1E1,1.3E1,1E0,1E0,5E0,1E0,1E0,3E0,1E1,3E0,4E0,1E0,4E0,4E0,9E0,1.2E1,1E0,2E0,1E0,3E0,2E0,4E0,1E0,7E0,1E0,2E0,3E0,1E0,1E0,1.1E1,3E0,5E0,1.2E1,4E0,1E0,3E0,1E0,5E0,3E0,4E0,1E0,2E0,2E0,3E0,1E0,4E0,1E0,4E0,1E0,2E0,2E0,1E0,2.2E1,4.7E1,1E0,1E0,2E0,3.7E1,2.4E1,2.6E1,3E0,3E0,6E0,1E1,1E0,2E0,8E0,2E0,4E0,3E0,1E0,1.7E1,7E0,5E0,5E0,1E0,4E0,4E0,6E0,1E0,2E0,2E0,2E0,3E0,1E0,1E0,3E0,3E0,4E0,2E0,1E0,7E0,4E0,2E0,1E0,1E0,4E0,7E0,5E0,3E0,2E0,2E0,1E0,1E0,1E0,2E0,2E1,1E0,1E0,3.3E1,4E0,2.2E1,2E0,3E0,3E0,3E0,5E0,2E0,1E0,5E0,1.2E1,2E0,3E0,3E0,2E0,5E0,1E0,1E0,1E0,1E0,2E0,6E0,1E0,1E0,3E0,1E0,1E0,4E0,3E0,1E0,1.9E1,2.7E1,6E0,1E0,3E0,9E0,1.3E1,1E0,1E0,3E0,2E0,4E0,1E0,1.1E1,1E0,2E0,1E0,4E0,1E0,3E0,1E0,2E0,1.7E1,2E0,1.1E1,1E1,1E0,1E0,1E0,4E0,1.3E1,5E0,6E0,3E0,1E0,4E0,9E0],"tree_param":{"num_deleted":"0","num_feature":"30","num_nodes":"501","size_leaf_vector":"1"}},{"base_weights":[1.541357E0,-3.5651147E2,8.159128E2,-4.8054465E2,1.22324165E2,4.6474063E2,1.4256855E3,-1.9417758E2,-5.8642487E2,1.3406141E1,6.8588513E2,2.963801E2,9.09948E2,1.126437E3,1.9556469E3,-5.775015E2,-1.2615227E2,-7.331387E2,-4.3851022E2,2.4243686E2,-1.0478914E2,3.2259167E2,9.792334E2,1.7578711E2,5.79046E2,7.070166E2,1.2918066E3,8.130341E2,1.3592876E3,3.035382E2,1.4703355E2,-2.3405408E2,-5.956152E2,-2.6255338E2,-3.7240482E1,-8.4148096E2,-6.1597833E2,-6.386662E2,-3.3880725E2,-4.5324257E1,3.3450156E2,-3.1921494E2,1.20754166E2,-1.0185905E1,4.3526434E2,1.5784146E2,5.0445427E1,5.1043912E2,-1.6723276E2,2.797434E2,7.964569E2,5.8917017E2,1.6497673E2,2.4710408E2,1.4945418E2,5.5886475E2,1.9469022E2,1.1896768E2,1.484123E3,-5.383309E1,1.1709229E0,-3.6146862E1,-9.239637E1,-3.4632312E2,-2.5365568E1,3.2974907E1,-1.9047299E2,-4.988112E2,-1.3010873E2,-4.7305905E2,-6.5433356E2,-8.62752E1,-7.348782E2,-3.9051987E2,-9.3083176E1,2.2109694E1,-7.36676E1,6.5741264E1,4.415616E2,-3.745206E2,-2.565347E1,-4.2765324E1,3.5181973E2,1.3540508E2,6.625795E2,7.484285E1,5.927684E2,-3.804066E2,5.1335697E1,3.313332E2,-4.8141357E1,1.437044E2,6.2605115E2,-1.567389E2,6.3765717E2,-4.81664E1,6.9292224E2,1.0717358E2,2.2926183E2,-1.3992651E2,-4.448572E2,-1.8507071E2,7.857093E1,-4.4550934E1,9.88173E1,-3.37286E2,-7.3859535E1,-5.5484894E2,4.61749E0,-5.3291064E2,-1.5480957E2,-1.02691055E2,-5.0198795E2,-3.8085556E1,1.6437866E1,-8.130375E2,-2.002508E2,-1.1361258E2,-4.781347E2,-1.4852858E2,3.044441E2,-1.157401E2,1.3669489E1,2.0585735E2,-6.3749844E1,2.087569E2,4.61964E2,-3.8993753E2,1.9318039E1,1.5095447E2,-2.84152E2,2.265406E2,-1.0830991E2,4.6176004E2,1.2918922E2,-1.8996094E1,4.4420742E1,1.077537E2,2.8776554E1,1.6178595E2,-3.1640114E1,2.0186739E2,6.4908923E2,-8.7326355E1,-2.2233269E2,-4.147986E1,2.2386215E2,-1.6315614E-1,3.4888626E2,-8.296515E0,-1.997635E0,5.6185497E1,1.1469464E2,-5.3213524E1,1.7947266E1,8.491002E2,3.4671494E2,-1.9643652E2,5.198882E1,2.3695407E2,1.16466644E2,-1.7025131E2,-6.100999E1,-1.0601296E2,-3.8958163E2,-4.446477E1,-1.2185987E1,1.5569977E2,-9.532947E1,-7.27666E1,3.645763E1,1.9019585E2,-3.1276789E0,-7.375066E1,-7.522489E1,-1.4135925E2,3.107588E2,-6.2753204E2,-2.8894128E2,-5.7845825E2,-2.125759E1,-2.7209932E1,-1.0162964E1,-7.7025406E1,-2.2104172E1,8.212239E1,-3.8177876E1,-1.03063E3,-7.1543475E2,-3.3423434E2,8.428308E1,-5.6179024E1,-3.7227264E2,-5.3335754E2,-2.222921E2,-3.081749E2,-5.1584602E1,-2.0307221E0,6.2242638E1,-7.786248E1,-2.2963638E1,4.4975246E1,-1.9802307E1,1.128136E2,-1.5693794E2,1.7002534E0,4.061788E1,7.061997E1,1.9405518E1,-4.2763998E2,-2.482363E2,1.0633942E0,2.6746449E1,-1.2424201E1,-4.8547604E1,3.415484E2,-2.3166504E0,-3.0861426E2,1.1771229E2,8.2585976E1,5.23193E2,-1.1589189E2,4.0324332E2,-7.24245E0,5.164847E0,-1.6555664E1,2.5531241E2,-6.45507E1,3.0143185E2,5.432542E2,1.3902434E2,-3.131551E2,-8.662392E1,-1.1512636E2,9.25865E1,1.489284E1,4.2129765E1,2.7388684E2,4.657372E2,4.742622E2,1.0282339E3,6.362036E1,3.826127E2,-2.6193622E2,4.9171696E0,9.85112E0,3.950333E1,-1.836549E2,-2.71615E0,-1.8820911E1,2.589569E0,-8.5773705E1,-4.5473007E2,1.8718958E2,6.123035E0,-3.262123E1,2.0333002E1,1.851276E1,-2.4804868E2,2.3673283E2,-2.0536861E1,-1.1254206E2,1.4770805E2,-1.5994508E0,-1.5726014E1,2.2532007E1,-1.7081166E2,9.708216E0,6.0212513E1,-3.1378859E1,-1.12954414E2,-6.535468E1,1.1349628E1,-9.243233E1,-2.0088612E1,-4.8443993E1,4.3661034E1,-6.8824587E0,1.3243805E2,-4.319924E1,-1.591409E2,-6.740377E1,-1.1184324E2,1.1119537E0,-3.9241107E2,1.9792189E1,-4.403357E0,-2.2730438E1,-7.445546E1,1.2070038E0,-4.4994586E2,-1.1106902E2,-4.5256998E2,6.297986E1,-2.763389E2,-5.0284256E1,-1.3330733E2,-1.4421135E2,1.14573326E2,-9.66177E1,2.6001618E0,2.1161015E1,4.222046E0,-2.399808E0,-2.8225962E1,-1.459455E1,-4.354082E2,1.5016791E1,-2.930823E2,6.14199E1,1.0334675E1,-1.0192695E1,9.671448E0,3.2518013E1,-3.7046326E2,6.207172E1,5.473189E1,1.4874299E1,3.7075472E0,3.3576227E2,1.0214361E2,-2.5112486E1,-9.173489E0,6.971895E1,1.6394577E1,4.201271E1,8.000895E0,-2.0348969E0,-1.2489011E1,5.259362E1,4.1602936E0,1.3227718E2,5.9201654E2,-3.2878336E2,-1.1765433E1,-1.2829799E2,3.9490234E1,-4.0620277E1,-4.805106E1,-6.829703E1,2.0277603E2,1.4492876E2,4.6646584E1,1.7706474E1,7.6750114E1,8.193916E1,2.582657E1,6.1236057E0,1.1142871E3,1.3054166E1,1.2604157E0,8.970062E0,4.028444E2,-4.7499E1,-7.3323674E0,-9.28389E1,-3.1397005E1,4.9622684E0,-2.790265E0,3.5607545E0,-1.4646432E2,-2.610098E2,-7.445297E1,3.0312666E1,8.45365E0,1.4981786E2,-1.5861768E2,-4.5166016E-3,-5.31529E1,2.6645013E2,-1.7905811E1,-3.7472167E0,-1.7417522E2,2.3348213E2,-1.096142E1,-2.0386797E2,2.1898252E1,2.3955172E1,-2.908081E-1,-6.884752E1,-2.592663E1,-2.3362993E2,2.2154058E1,-8.3413315E1,-1.9030793E0,-4.9025632E2,-8.104269E1,4.8350082E1,-1.9637415E1,-5.5884262E1,2.9108252E1,-3.0985575E1,9.914246E-1,-2.9043444E1,-6.2529236E1,-1.4010605E2,5.1091408E1,-7.2631397E0,-1.9301123E1,-6.791189E1,-3.1428993E1,-6.2572918E1,-1.8031602E2,-3.9317108E2,-9.050785E0,3.86706E1,-1.0069227E1,7.137026E1,1.8458615E2,4.552954E0,2.2525494E1,6.9065485E2,3.158106E2,-5.1629776E1,-1.4253526E1,-9.623566E-1,-1.4754242E2,7.205164E0,1.6801392E0,-8.632224E1,-1.3850062E1,1.396854E1,-2.2971766E1,5.455604E1,-2.5746908E1,-1.0181641E1,4.6413834E1,8.773317E1,1.8595514E2,4.218446E2,1.3113135E1,-2.2783997E0,-1.7048847E1,-6.1165195E0,-2.5215187E1,-5.4291065E1,-3.943233E1,7.799437E1,2.0864227E2,-3.341848E2,4.8673023E1,6.1296144E0,-9.195777E0,2.886648E2,-5.0077243E0,-1.6486067E1,1.5549262E1,-6.6114445E0,-2.1739954E2,3.450586E0,4.064655E1,-2.2619066E2,-6.9931765E0,-5.6384933E1,-1.0408765E2,6.158545E1,-1.258443E1,-8.357885E1,-4.0641492E2,3.9768826E1,-2.7253506E2,-2.0075533E1,5.106666E1,-1.0208372E1,-2.6172273E0,-2.3789953E1,-6.3468843E0,-1.167291E1,-3.566005E1,-6.1527866E1,-1.6726814E1,-1.3614203E1,4.540373E1,3.6392555E1,-3.5653017E0,7.585785E2,1.9535376E2,5.363104E2,7.942564E1,-4.439429E0,-2.4781866E1,-3.9185853E0,-1.4226129E1,-2.6269938E1,4.5501895E0,-5.3988833E0,-3.9417115E-1,7.0420586E1,3.138377E1,-1.095184E1,2.0795655E0,1.3957544E1,-9.25589E-1,3.9014473E1,1.0573389E1,-1.3958139E1,-5.568059E1,7.370615E1,-3.8594606E0,4.607418E1,1.6843836E1,-9.94965E0,-3.578759E1,-3.675515E1,-1.319723E1,-2.8458803E0,-1.8920277E1,3.7107277E1,-4.912321E1,-6.194547E1,-1.6715937E1,-4.5191387E1,-1.1817875E1,-2.397432E0,1.6817694E1,8.218264E2,1.4731396E2,4.139755E1,-3.4901917E0,2.2507608E1,8.9304405E1,1.404805E2,-4.2684083E0,-5.1711516E0,1.1064057E0,3.1668458E0,1.2629999E1,3.5761295E1,-7.5420235E1,5.3004955E1,1.2910951E2,2.6929066E1,6.2165775E0,9.243293E0,2.8279213E1,-2.4130583E2,-4.3582623E1,-4.2971687E1,-1.1322125E1,-2.6452456E1,1.042086E0],"categories":[],"categories_nodes":[],"categories_segments":[],"categories_sizes":[],"default_left":[0,0,0,0,0,0,0,0,0,0,0,0,0,0,0,0,0,0,0,0,0,0,0,0,0,0,0,0,0,0,0,0,0,0,0,0,0,0,0,0,0,0,0,0,0,0,0,0,0,0,0,0,0,0,0,0,0,0,0,0,0,0,0,0,0,0,0,0,0,0,0,0,0,0,0,0,0,0,0,0,0,0,0,0,0,0,0,0,0,0,0,0,0,0,0,0,0,0,0,0,0,0,0,0,0,0,0,0,0,0,0,0,0,0,0,0,0,0,0,0,0,0,0,0,0,0,0,0,0,0,0,0,0,0,0,0,0,0,0,0,0,0,0,0,0,0,0,0,0,0,0,0,0,0,0,0,0,0,0,0,0,0,0,0,0,0,0,0,0,0,0,0,0,0,0,0,0,0,0,0,0,0,0,0,0,0,0,0,0,0,0,0,0,0,0,0,0,0,0,0,0,0,0,0,0,0,0,0,0,0,0,0,0,0,0,0,0,0,0,0,0,0,0,0,0,0,0,0,0,0,0,0,0,0,0,0,0,0,0,0,0,0,0,0,0,0,0,0,0,0,0,0,0,0,0,0,0,0,0,0,0,0,0,0,0,0,0,0,0,0,0,0,0,0,0,0,0,0,0,0,0,0,0,0,0,0,0,0,0,0,0,0,0,0,0,0,0,0,0,0,0,0,0,0,0,0,0,0,0,0,0,0,0,0,0,0,0,0,0,0,0,0,0,0,0,0,0,0,0,0,0,0,0,0,0,0,0,0,0,0,0,0,0,0,0,0,0,0,0,0,0,0,0,0,0,0,0,0,0,0,0,0,0,0,0,0,0,0,0,0,0,0,0,0,0,0,0,0,0,0,0,0,0,0,0,0,0,0,0,0,0,0,0,0,0,0,0,0,0,0,0,0,0,0,0,0,0,0,0,0,0,0,0,0,0,0,0,0,0,0,0,0,0,0,0,0,0,0,0,0,0,0,0,0,0,0,0,0,0,0,0,0,0,0,0,0,0,0,0,0,0,0,0,0,0,0,0,0,0,0,0,0,0,0,0,0,0,0,0,0,0,0,0,0,0,0,0,0,0,0,0,0,0,0,0,0,0,0,0,0,0,0,0,0,0,0,0,0,0,0,0,0,0,0,0,0,0,0,0,0,0,0,0,0,0,0,0,0,0,0,0,0,0,0,0,0,0,0,0,0,0,0,0,0,0,0,0,0,0,0,0],"id":1,"left_children":[1,3,5,7,9,11,13,15,17,19,21,23,25,27,29,31,33,35,37,39,41,43,45,47,49,51,53,55,57,-1,-1,59,61,63,65,67,69,71,73,75,77,79,81,-1,83,-1,-1,85,87,89,91,93,-1,-1,-1,95,-1,-1,97,-1,-1,-1,-1,99,101,103,105,107,-1,109,111,113,115,117,119,-1,121,123,125,127,129,131,133,135,137,139,141,143,145,147,149,-1,151,153,155,157,159,-1,-1,161,163,165,167,169,171,173,175,177,-1,179,181,-1,183,-1,185,187,189,191,193,195,197,199,-1,201,203,205,207,209,-1,211,213,215,217,219,221,223,-1,-1,-1,225,-1,227,229,-1,231,233,235,-1,237,-1,-1,-1,-1,-1,-1,239,241,243,-1,245,-1,247,249,-1,251,-1,-1,253,255,257,-1,259,261,-1,263,265,267,269,271,273,275,-1,-1,-1,-1,277,-1,279,281,283,285,287,289,291,293,295,297,-1,-1,299,-1,-1,-1,301,303,-1,-1,-1,-1,305,307,-1,-1,-1,-1,309,311,313,315,317,319,321,323,-1,-1,-1,325,327,329,331,-1,333,335,337,339,-1,-1,341,343,345,347,349,351,353,-1,-1,-1,355,-1,-1,357,359,361,363,-1,-1,-1,365,367,369,-1,371,373,-1,-1,-1,375,-1,-1,-1,-1,-1,-1,-1,-1,-1,-1,-1,377,-1,-1,-1,-1,-1,379,-1,-1,381,-1,-1,383,-1,385,387,389,-1,391,393,395,397,-1,-1,-1,-1,-1,-1,399,-1,401,-1,-1,-1,-1,-1,403,405,-1,-1,-1,407,-1,-1,-1,-1,-1,-1,-1,-1,-1,-1,-1,409,411,413,-1,415,417,-1,419,421,423,425,-1,-1,-1,-1,-1,-1,427,-1,-1,-1,429,-1,-1,431,-1,-1,-1,-1,433,435,-1,-1,-1,437,439,441,-1,443,-1,445,447,449,-1,451,-1,-1,-1,-1,-1,453,455,-1,-1,457,459,-1,-1,-1,461,-1,-1,-1,463,465,-1,-1,-1,-1,-1,-1,467,469,-1,-1,471,-1,473,-1,-1,475,477,-1,-1,-1,479,-1,-1,481,483,-1,-1,-1,485,-1,-1,-1,-1,487,-1,-1,-1,-1,-1,-1,489,491,493,495,497,-1,-1,499,-1,-1,-1,-1,501,-1,-1,503,-1,-1,505,-1,507,-1,509,-1,511,-1,-1,-1,-1,-1,-1,-1,-1,-1,-1,-1,513,-1,-1,515,517,519,521,-1,-1,-1,-1,523,-1,-1,-1,-1,-1,-1,-1,-1,-1,-1,-1,-1,-1,525,-1,-1,-1,-1,-1,-1,-1,-1,-1,-1,527,-1,-1,-1,-1,-1,-1,529,531,-1,-1,-1,-1,533,-1,-1,-1,-1,-1,-1,535,-1,-1,-1,-1,-1,-1,537,539,-1,-1,-1,-1],"loss_changes":[3.5136285E8,4.976948E7,7.813917E7,2.0049312E7,1.0609883E7,1.7344812E7,1.9048192E7,4.646855E6,1.0203568E7,3.9776762E6,2.668109E6,5.761267E6,4.0461E6,5.316744E6,1.131184E6,2.8563E4,1.8700102E6,2.553472E6,4.652912E6,1.3397922E6,4.7296905E6,6.455349E5,3.5054E5,1.4090022E7,3.09585E6,1.388916E6,5.6462E5,4.204504E6,2.286136E6,0E0,0E0,9.337808E4,3.2078E4,1.2032345E6,1.02841244E6,6.59424E5,3.48264E5,4.188326E6,2.06031E6,8.186955E4,1.0643645E6,8.02173E5,1.8286645E6,0E0,6.6007175E5,0E0,0E0,2.179097E6,2.861706E6,4.0500725E5,1.9868E5,1.401953E6,0E0,0E0,0E0,2.311934E6,0E0,0E0,2.37328E5,0E0,0E0,0E0,0E0,8.52922E5,2.9672747E5,3.412985E5,4.8869938E5,3.4353025E5,0E0,4.698845E5,8.0644E4,2.280029E5,2.678644E6,3.245198E6,7.064504E5,0E0,9.374872E4,2.3084878E5,3.18055E4,3.761155E5,4.537701E5,5.3643144E5,4.2986675E5,1.5452984E5,1.9729E4,3.0743584E5,1.013798E6,8.592905E5,5.0569303E5,1.1707975E5,2.619746E2,0E0,3.06046E5,2.0663503E5,1.797206E6,4.192687E5,6.91936E5,0E0,0E0,2.7903E4,1.589555E5,5.6856875E4,1.6238288E5,2.6924722E5,3.359559E5,4.8897238E5,5.1123797E5,1.195025E4,0E0,5.470135E5,1.5985938E3,0E0,1.9145E3,0E0,1.8108088E5,5.15668E5,4.0939888E5,4.8418216E5,1.33666E6,4.019752E5,1.4617447E5,2.2275625E3,0E0,2.3009767E5,1.3288002E5,4.5914125E4,9.6225E3,1.128865E5,0E0,2.2348656E4,5.0007812E3,1.5871347E5,1.1228852E6,2.596105E5,5.840565E5,7.921506E3,0E0,0E0,0E0,2.572641E5,0E0,2.3166384E5,8.19252E5,0E0,2.0705575E5,2.1800303E5,5.0227625E4,0E0,3.8952E4,0E0,0E0,0E0,0E0,0E0,0E0,7.88124E5,1.382575E5,8.365503E4,0E0,5.3145312E3,0E0,1.9106438E4,2.4923734E4,0E0,4.953965E5,0E0,0E0,2.1299156E4,1.4228453E5,4.6858144E5,0E0,3.216417E5,3.1368812E5,0E0,1.0354168E4,1.6305844E5,4.0935438E4,2.099755E5,2.4699969E5,2.8673E5,3.7669822E5,0E0,0E0,0E0,0E0,5.7602094E4,0E0,5.4594E4,1.8358E4,1.4204044E5,2.5539727E4,4.157062E5,1.8086431E5,1.07032E6,3.257645E5,2.619375E3,2.9355478E5,0E0,0E0,1.4172879E4,0E0,0E0,0E0,3.2072031E3,1.9000742E4,0E0,0E0,0E0,0E0,3.71875E4,2.0118344E5,0E0,0E0,0E0,0E0,4.585972E4,1.7533047E4,5.0275325E5,1.4238145E5,4.267246E2,9.662875E4,3.8624688E3,2.1568562E4,0E0,0E0,0E0,2.0083875E4,1.7321709E3,7.1057875E4,6.23096E5,0E0,1.456225E4,5.2367734E4,1.3317539E5,1.5567044E5,0E0,0E0,2.1893875E4,3.5419125E4,7.99445E4,9.74148E5,3.1462275E3,6.7344375E4,3.1157312E4,0E0,0E0,0E0,3.8695625E3,0E0,0E0,3.2000627E3,4.335496E4,4.78385E4,3.0332812E2,0E0,0E0,0E0,4.889263E5,2.6367925E5,2.1170881E5,0E0,7.310639E4,1.6856248E5,0E0,0E0,0E0,1.8684594E5,0E0,0E0,0E0,0E0,0E0,0E0,0E0,0E0,0E0,0E0,0E0,2.2290781E4,0E0,0E0,0E0,0E0,0E0,8.369875E3,0E0,0E0,2.7022712E5,0E0,0E0,2.2500425E5,0E0,8.42363E5,2.4334947E5,5.1049162E5,0E0,3.2117574E4,3.6325438E4,4.506885E5,3.039586E3,0E0,0E0,0E0,0E0,0E0,0E0,2.26255E4,0E0,6.469025E4,0E0,0E0,0E0,0E0,0E0,6.078375E4,1.5791931E5,0E0,0E0,0E0,6.0367938E4,0E0,0E0,0E0,0E0,0E0,0E0,0E0,0E0,0E0,0E0,0E0,4.560414E3,6.26462E5,3.3275E3,0E0,1.5472289E4,1.8709717E2,0E0,1.3202473E4,6.9046336E4,1.9324638E5,1.9603284E5,0E0,0E0,0E0,0E0,0E0,0E0,5.248E3,0E0,0E0,0E0,4.103225E4,0E0,0E0,4.7402773E3,0E0,0E0,0E0,0E0,2.292375E3,1.1991159E5,0E0,0E0,0E0,3.442678E4,3.4380675E5,1.2526271E4,0E0,1.1620875E5,0E0,6.840577E4,2.9781906E4,4.1117594E4,0E0,3.8597125E4,0E0,0E0,0E0,0E0,0E0,5.3023156E4,3.289981E5,0E0,0E0,9.3433E4,5.3627594E5,0E0,0E0,0E0,2.992176E5,0E0,0E0,0E0,3.0741406E2,5.2346875E2,0E0,0E0,0E0,0E0,0E0,0E0,2.26955E4,6.975125E3,0E0,0E0,4.440698E4,0E0,6.6221766E4,0E0,0E0,5.91947E5,4.786317E5,0E0,0E0,0E0,7.615E3,0E0,0E0,8.641797E1,4.6382637E3,0E0,0E0,0E0,6.160287E2,0E0,0E0,0E0,0E0,2.32895E4,0E0,0E0,0E0,0E0,0E0,0E0,6.3812646E3,9.444445E3,2.4317328E4,1.00900625E4,1.1209108E4,0E0,0E0,1.4442E4,0E0,0E0,0E0,0E0,1.7595312E2,0E0,0E0,9.6939375E3,0E0,0E0,5.113207E3,0E0,2.3062573E5,0E0,1.00505E4,0E0,4.1062812E3,0E0,0E0,0E0,0E0,0E0,0E0,0E0,0E0,0E0,0E0,0E0,2.6364129E4,0E0,0E0,6.13497E5,7.693136E4,2.4712875E4,4.3517734E4,0E0,0E0,0E0,0E0,1.9105552E3,0E0,0E0,0E0,0E0,0E0,0E0,0E0,0E0,0E0,0E0,0E0,0E0,0E0,4.2999023E2,0E0,0E0,0E0,0E0,0E0,0E0,0E0,0E0,0E0,0E0,1.767667E5,0E0,0E0,0E0,0E0,0E0,0E0,5.668E3,2.7909336E3,0E0,0E0,0E0,0E0,3.5383828E3,0E0,0E0,0E0,0E0,0E0,0E0,9.51113E4,0E0,0E0,0E0,0E0,0E0,0E0,8.483906E2,1.2198179E5,0E0,0E0,0E0,0E0],"parents":[2147483647,0,0,1,1,2,2,3,3,4,4,5,5,6,6,7,7,8,8,9,9,10,10,11,11,12,12,13,13,14,14,15,15,16,16,17,17,18,18,19,19,20,20,21,21,22,22,23,23,24,24,25,25,26,26,27,27,28,28,31,31,32,32,33,33,34,34,35,35,36,36,37,37,38,38,39,39,40,40,41,41,42,42,44,44,47,47,48,48,49,49,50,50,51,51,55,55,58,58,63,63,64,64,65,65,66,66,67,67,69,69,70,70,71,71,72,72,73,73,74,74,76,76,77,77,78,78,79,79,80,80,81,81,82,82,83,83,84,84,85,85,86,86,87,87,88,88,89,89,90,90,92,92,93,93,94,94,95,95,96,96,99,99,100,100,101,101,102,102,103,103,104,104,105,105,106,106,107,107,109,109,110,110,112,112,114,114,115,115,116,116,117,117,118,118,119,119,120,120,121,121,123,123,124,124,125,125,126,126,127,127,129,129,130,130,131,131,132,132,133,133,134,134,135,135,139,139,141,141,142,142,144,144,145,145,146,146,148,148,155,155,156,156,157,157,159,159,161,161,162,162,164,164,167,167,168,168,169,169,171,171,172,172,174,174,175,175,176,176,177,177,178,178,179,179,180,180,185,185,187,187,188,188,189,189,190,190,191,191,192,192,193,193,194,194,195,195,196,196,199,199,203,203,204,204,209,209,210,210,215,215,216,216,217,217,218,218,219,219,220,220,221,221,222,222,226,226,227,227,228,228,229,229,231,231,232,232,233,233,234,234,237,237,238,238,239,239,240,240,241,241,242,242,243,243,247,247,250,250,251,251,252,252,253,253,257,257,258,258,259,259,261,261,262,262,266,266,278,278,284,284,287,287,290,290,292,292,293,293,294,294,296,296,297,297,298,298,299,299,306,306,308,308,314,314,315,315,319,319,331,331,332,332,333,333,335,335,336,336,338,338,339,339,340,340,341,341,348,348,352,352,355,355,360,360,361,361,365,365,366,366,367,367,369,369,371,371,372,372,373,373,375,375,381,381,382,382,385,385,386,386,390,390,394,394,395,395,402,402,403,403,406,406,408,408,411,411,412,412,416,416,419,419,420,420,424,424,429,429,436,436,437,437,438,438,439,439,440,440,443,443,448,448,451,451,454,454,456,456,458,458,460,460,472,472,475,475,476,476,477,477,478,478,483,483,497,497,508,508,515,515,516,516,521,521,528,528,535,535,536,536],"right_children":[2,4,6,8,10,12,14,16,18,20,22,24,26,28,30,32,34,36,38,40,42,44,46,48,50,52,54,56,58,-1,-1,60,62,64,66,68,70,72,74,76,78,80,82,-1,84,-1,-1,86,88,90,92,94,-1,-1,-1,96,-1,-1,98,-1,-1,-1,-1,100,102,104,106,108,-1,110,112,114,116,118,120,-1,122,124,126,128,130,132,134,136,138,140,142,144,146,148,150,-1,152,154,156,158,160,-1,-1,162,164,166,168,170,172,174,176,178,-1,180,182,-1,184,-1,186,188,190,192,194,196,198,200,-1,202,204,206,208,210,-1,212,214,216,218,220,222,224,-1,-1,-1,226,-1,228,230,-1,232,234,236,-1,238,-1,-1,-1,-1,-1,-1,240,242,244,-1,246,-1,248,250,-1,252,-1,-1,254,256,258,-1,260,262,-1,264,266,268,270,272,274,276,-1,-1,-1,-1,278,-1,280,282,284,286,288,290,292,294,296,298,-1,-1,300,-1,-1,-1,302,304,-1,-1,-1,-1,306,308,-1,-1,-1,-1,310,312,314,316,318,320,322,324,-1,-1,-1,326,328,330,332,-1,334,336,338,340,-1,-1,342,344,346,348,350,352,354,-1,-1,-1,356,-1,-1,358,360,362,364,-1,-1,-1,366,368,370,-1,372,374,-1,-1,-1,376,-1,-1,-1,-1,-1,-1,-1,-1,-1,-1,-1,378,-1,-1,-1,-1,-1,380,-1,-1,382,-1,-1,384,-1,386,388,390,-1,392,394,396,398,-1,-1,-1,-1,-1,-1,400,-1,402,-1,-1,-1,-1,-1,404,406,-1,-1,-1,408,-1,-1,-1,-1,-1,-1,-1,-1,-1,-1,-1,410,412,414,-1,416,418,-1,420,422,424,426,-1,-1,-1,-1,-1,-1,428,-1,-1,-1,430,-1,-1,432,-1,-1,-1,-1,434,436,-1,-1,-1,438,440,442,-1,444,-1,446,448,450,-1,452,-1,-1,-1,-1,-1,454,456,-1,-1,458,460,-1,-1,-1,462,-1,-1,-1,464,466,-1,-1,-1,-1,-1,-1,468,470,-1,-1,472,-1,474,-1,-1,476,478,-1,-1,-1,480,-1,-1,482,484,-1,-1,-1,486,-1,-1,-1,-1,488,-1,-1,-1,-1,-1,-1,490,492,494,496,498,-1,-1,500,-1,-1,-1,-1,502,-1,-1,504,-1,-1,506,-1,508,-1,510,-1,512,-1,-1,-1,-1,-1,-1,-1,-1,-1,-1,-1,514,-1,-1,516,518,520,522,-1,-1,-1,-1,524,-1,-1,-1,-1,-1,-1,-1,-1,-1,-1,-1,-1,-1,526,-1,-1,-1,-1,-1,-1,-1,-1,-1,-1,528,-1,-1,-1,-1,-1,-1,530,532,-1,-1,-1,-1,534,-1,-1,-1,-1,-1,-1,536,-1,-1,-1,-1,-1,-1,538,540,-1,-1,-1,-1],"split_conditions":[4.7730866E-1,6.0080457E-1,1.400442E0,-8.3874685E-1,1.517716E0,5.5547565E-1,8.029543E-1,-1.2799635E0,-2.0744812E-3,-9.829365E-1,4.1868797E-1,1.4952861E0,1.3453361E0,1.9655068E0,2.0802479E0,4.7913578E-1,-1.9392112E-1,-1.9618516E-1,-5.4019856E-1,-2.8844982E-1,-2.0744812E-3,-6.008571E-1,1.2635199E0,9.9616593E-1,9.817091E-1,1.4952861E0,9.94198E-1,1.4952861E0,-1.5626047E0,3.035382E2,1.4703355E2,-1.0003148E0,-1.2842036E0,-5.0119466E-1,-9.9287456E-1,-7.5855756E-1,-7.256531E-1,-6.163169E-1,3.4256542E-1,-1.3867272E0,7.571196E-1,9.965058E-1,6.6135246E-1,-1.0185905E1,2.0212479E0,1.5784146E2,5.0445427E1,5.6553966E-1,9.817091E-1,2.658992E-1,5.175513E-1,-9.294481E-1,1.6497673E2,2.4710408E2,1.4945418E2,-8.124131E-1,1.9469022E2,1.1896768E2,-1.3528534E0,-5.383309E1,1.1709229E0,-3.6146862E1,-9.239637E1,-1.1474588E0,-7.668433E-1,-3.2142025E-1,-1.0003148E0,-7.747815E-1,-1.3010873E2,8.3348906E-1,3.562884E-1,-2.0508904E0,3.7125587E-1,-4.6229452E-1,2.0802479E0,2.2109694E1,-1.0353659E0,4.6362582E-1,8.2484806E-1,4.4033885E0,1.0118679E0,-6.033061E-1,-3.0075717E-1,1.19485825E-1,2.0802479E0,1.2796918E0,-1.4408524E0,-8.4227914E-1,-1.1328822E-2,4.8526263E-1,4.7913578E-1,1.437044E2,-2.862409E-1,9.9616593E-1,1.032962E0,4.9594097E0,-8.15857E-1,1.0717358E2,2.2926183E2,-1.2507023E0,-1.2688336E0,9.94198E-1,6.2252617E-1,-1.0766282E0,1.5637863E-1,-8.8353837E-1,4.3319348E-1,-1.2480116E-1,4.61749E0,5.5547565E-1,1.2230498E0,-1.02691055E2,2.7986078E0,-3.8085556E1,1.2635199E0,-1.1443597E0,4.3911913E-1,1.0689433E0,2.4354412E-1,-1.738338E-1,-2.1697333E0,-5.0119466E-1,1.3669489E1,7.4652195E-1,-1.4249694E0,1.9101124E-1,4.0854836E0,1.1376467E0,1.9318039E1,-1.0003148E0,-5.0119466E-1,6.817258E-2,-4.9303167E-2,6.422557E-1,1.19485825E-1,-8.15857E-1,4.4420742E1,1.077537E2,2.8776554E1,-3.2142025E-1,-3.1640114E1,-1.7651899E0,8.126216E-1,-8.7326355E1,-2.2927865E-1,1.2260871E0,3.108371E-1,-1.6315614E-1,-4.4187737E-1,-8.296515E0,-1.997635E0,5.6185497E1,1.1469464E2,-5.3213524E1,1.7947266E1,-2.823428E-1,5.2931666E-1,-2.7890688E-1,5.198882E1,-3.2142025E-1,1.16466644E2,-2.7890688E-1,-1.0930334E0,-1.0601296E2,-9.7152203E-1,-4.446477E1,-1.2185987E1,-2.9155836E-1,-2.0744812E-3,-1.1705656E0,3.645763E1,1.3071234E1,4.176824E-1,-7.375066E1,-8.7449574E-1,-7.973169E-2,-3.8120613E-1,4.7913578E-1,-5.0119466E-1,-1.3690902E-1,-5.0119466E-1,-2.7209932E1,-1.0162964E1,-7.7025406E1,-2.2104172E1,-8.1402457E-1,-3.8177876E1,-2.4213853E0,-4.438582E-1,4.7913578E-1,9.94198E-1,9.962429E0,2.1197376E-1,-2.945766E-1,3.7382266E-1,-2.2927865E-1,7.759537E-1,-2.0307221E0,6.2242638E1,-2.7890688E-1,-2.2963638E1,4.4975246E1,-1.9802307E1,6.164146E-1,2.4854656E-1,1.7002534E0,4.061788E1,7.061997E1,1.9405518E1,-1.0364091E0,-9.0097386E-1,1.0633942E0,2.6746449E1,-1.2424201E1,-4.8547604E1,8.467659E-1,-3.2142025E-1,6.422557E-1,3.3957694E0,4.4033885E0,8.6806667E-1,7.152779E-1,9.9616593E-1,-7.24245E0,5.164847E0,-1.6555664E1,-1.4320184E-1,4.7913578E-1,4.9594097E0,-1.5316156E0,1.3902434E2,8.5430527E-1,2.7892575E-1,-1.044477E0,-9.833736E-1,1.489284E1,4.2129765E1,1.2230498E0,6.597932E-1,1.0390646E0,6.5617716E-1,1.2796918E0,1.2230498E0,9.962429E0,4.9171696E0,9.85112E0,3.950333E1,-3.9393127E-1,-2.71615E0,-1.8820911E1,-1.0003148E0,1.2796918E0,-5.879203E-1,4.4033885E0,6.123035E0,-3.262123E1,2.0333002E1,5.649909E-1,-5.879203E-1,8.640825E0,-2.0536861E1,-1.2963015E0,-1.1272315E0,-1.5994508E0,-1.5726014E1,2.2532007E1,-8.8353837E-1,9.708216E0,6.0212513E1,-3.1378859E1,-1.12954414E2,-6.535468E1,1.1349628E1,-9.243233E1,-2.0088612E1,-4.8443993E1,4.3661034E1,-6.8824587E0,4.0854836E0,-4.319924E1,-1.591409E2,-6.740377E1,-1.1184324E2,1.1119537E0,-7.85647E-1,1.9792189E1,-4.403357E0,-7.85647E-1,-7.445546E1,1.2070038E0,4.1096252E-1,-1.1106902E2,6.2529993E0,4.9704573E-1,2.0136069E-1,-5.0284256E1,6.817258E-2,9.958498E-2,9.94198E-1,-6.0489416E-1,2.6001618E0,2.1161015E1,4.222046E0,-2.399808E0,-2.8225962E1,-1.459455E1,-2.945766E-1,1.5016791E1,-7.85647E-1,6.14199E1,1.0334675E1,-1.0192695E1,9.671448E0,3.2518013E1,1.4168941E0,-6.328582E-1,5.473189E1,1.4874299E1,3.7075472E0,-8.363238E-1,1.0214361E2,-2.5112486E1,-9.173489E0,6.971895E1,1.6394577E1,4.201271E1,8.000895E0,-2.0348969E0,-1.2489011E1,5.259362E1,4.1602936E0,9.94198E-1,7.235478E-1,3.812177E-1,-1.1765433E1,-1.1889474E-1,-3.8120613E-1,-4.0620277E1,8.8143516E-1,1.2230498E0,-6.867836E-1,9.5707464E-1,4.6646584E1,1.7706474E1,7.6750114E1,8.193916E1,2.582657E1,6.1236057E0,5.441535E-1,1.3054166E1,1.2604157E0,8.970062E0,1.4184315E0,-4.7499E1,-7.3323674E0,-3.2142025E-1,-3.1397005E1,4.9622684E0,-2.790265E0,3.5607545E0,-1.1361623E0,-2.7890688E-1,-7.445297E1,3.0312666E1,8.45365E0,-1.2963015E0,7.759537E-1,-2.0744812E-3,-5.31529E1,1.1499333E0,-1.7905811E1,1.885328E-1,9.94198E-1,1.670359E-1,-1.096142E1,2.562428E0,2.1898252E1,2.3955172E1,-2.908081E-1,-6.884752E1,-2.592663E1,-3.2142025E-1,-7.317215E-1,-8.3413315E1,-1.9030793E0,2.0136069E-1,-3.2121307E-1,4.8350082E1,-1.9637415E1,-5.5884262E1,4.3319348E-1,-3.0985575E1,9.914246E-1,-2.9043444E1,5.200699E-1,9.6693E-1,5.1091408E1,-7.2631397E0,-1.9301123E1,-6.791189E1,-3.1428993E1,-6.2572918E1,8.55298E-2,9.962429E0,-9.050785E0,3.86706E1,2.207803E-1,7.137026E1,9.94198E-1,4.552954E0,2.2525494E1,2.179116E-1,2.797874E-2,-5.1629776E1,-1.4253526E1,-9.623566E-1,-3.2142025E-1,7.205164E0,1.6801392E0,-4.703506E-1,-2.7890688E-1,1.396854E1,-2.2971766E1,5.455604E1,-3.2142025E-1,-1.0181641E1,4.6413834E1,8.773317E1,1.8595514E2,1.2191279E0,1.3113135E1,-2.2783997E0,-1.7048847E1,-6.1165195E0,-2.5215187E1,-5.4291065E1,-1.0003148E0,-2.7890688E-1,5.175513E-1,-4.46445E-3,-5.0119466E-1,6.1296144E0,-9.195777E0,2.7986078E0,-5.0077243E0,-1.6486067E1,1.5549262E1,-6.6114445E0,-1.0003148E0,3.450586E0,4.064655E1,7.6021576E-1,-6.9931765E0,-5.6384933E1,1.2230498E0,6.158545E1,-3.8397992E-1,-8.357885E1,1.885328E-1,3.9768826E1,1.2095945E0,-2.0075533E1,5.106666E1,-1.0208372E1,-2.6172273E0,-2.3789953E1,-6.3468843E0,-1.167291E1,-3.566005E1,-6.1527866E1,-1.6726814E1,-1.3614203E1,1.0736514E0,3.6392555E1,-3.5653017E0,4.176824E-1,-2.2619571E-1,8.7403065E-1,4.6362582E-1,-4.439429E0,-2.4781866E1,-3.9185853E0,-1.4226129E1,4.7913578E-1,4.5501895E0,-5.3988833E0,-3.9417115E-1,7.0420586E1,3.138377E1,-1.095184E1,2.0795655E0,1.3957544E1,-9.25589E-1,3.9014473E1,1.0573389E1,-1.3958139E1,-5.568059E1,-1.0003148E0,-3.8594606E0,4.607418E1,1.6843836E1,-9.94965E0,-3.578759E1,-3.675515E1,-1.319723E1,-2.8458803E0,-1.8920277E1,3.7107277E1,-8.0893266E-1,-6.194547E1,-1.6715937E1,-4.5191387E1,-1.1817875E1,-2.397432E0,1.6817694E1,-1.037299E0,-3.2142025E-1,4.139755E1,-3.4901917E0,2.2507608E1,8.9304405E1,7.350734E-1,-4.2684083E0,-5.1711516E0,1.1064057E0,3.1668458E0,1.2629999E1,3.5761295E1,-5.879203E-1,5.3004955E1,1.2910951E2,2.6929066E1,6.2165775E0,9.243293E0,2.8279213E1,-3.2142025E-1,-1.4201683E-1,-4.2971687E1,-1.1322125E1,-2.6452456E1,1.042086E0],"split_indices":[28,27,28,28,27,27,27,25,0,28,25,0,27,28,1,1,27,27,27,26,0,29,25,0,28,0,5,0,27,0,0,0,28,0,28,28,28,28,28,28,27,26,25,0,27,0,0,28,28,25,25,25,0,0,0,27,0,0,26,0,0,0,0,28,27,1,0,28,0,26,27,27,28,28,1,0,28,25,27,3,25,28,28,28,1,1,27,27,27,28,1,0,27,0,15,12,26,0,0,28,27,5,26,28,27,28,27,23,0,27,2,0,23,0,25,27,28,23,27,27,25,0,0,27,28,26,6,27,0,0,0,25,28,27,28,26,0,0,0,1,0,26,28,0,27,28,25,0,26,0,0,0,0,0,0,25,28,23,0,1,0,23,27,0,27,0,0,29,0,28,0,16,27,0,28,27,25,1,0,29,0,0,0,0,0,28,0,25,28,1,5,13,25,28,27,27,26,0,0,23,0,0,0,25,26,0,0,0,0,26,28,0,0,0,0,27,1,27,9,3,25,25,0,0,0,0,23,1,12,25,0,28,27,27,25,0,0,2,28,27,27,1,2,13,0,0,0,26,0,0,0,1,25,3,0,0,0,26,25,23,0,28,28,0,0,0,28,0,0,0,0,0,0,0,0,0,0,0,6,0,0,0,0,0,25,0,0,25,0,0,27,0,19,0,28,0,25,27,5,26,0,0,0,0,0,0,28,0,25,0,0,0,0,0,27,25,0,0,0,28,0,0,0,0,0,0,0,0,0,0,0,5,28,23,0,27,25,0,26,2,25,28,0,0,0,0,0,0,28,0,0,0,26,0,0,1,0,0,0,0,25,23,0,0,0,28,26,0,0,26,0,27,5,25,0,4,0,0,0,0,0,1,25,0,0,28,27,0,0,0,27,0,0,0,27,25,0,0,0,0,0,0,26,13,0,0,28,0,5,0,0,23,27,0,0,0,1,0,0,27,23,0,0,0,1,0,0,0,0,27,0,0,0,0,0,0,0,23,25,27,0,0,0,23,0,0,0,0,0,0,0,25,0,0,2,0,27,0,27,0,25,0,0,0,0,0,0,0,0,0,0,0,27,0,0,27,27,17,25,0,0,0,0,1,0,0,0,0,0,0,0,0,0,0,0,0,0,0,0,0,0,0,0,0,0,0,0,0,28,0,0,0,0,0,0,25,1,0,0,0,0,7,0,0,0,0,0,0,25,0,0,0,0,0,0,1,27,0,0,0,0],"split_type":[0,0,0,0,0,0,0,0,0,0,0,0,0,0,0,0,0,0,0,0,0,0,0,0,0,0,0,0,0,0,0,0,0,0,0,0,0,0,0,0,0,0,0,0,0,0,0,0,0,0,0,0,0,0,0,0,0,0,0,0,0,0,0,0,0,0,0,0,0,0,0,0,0,0,0,0,0,0,0,0,0,0,0,0,0,0,0,0,0,0,0,0,0,0,0,0,0,0,0,0,0,0,0,0,0,0,0,0,0,0,0,0,0,0,0,0,0,0,0,0,0,0,0,0,0,0,0,0,0,0,0,0,0,0,0,0,0,0,0,0,0,0,0,0,0,0,0,0,0,0,0,0,0,0,0,0,0,0,0,0,0,0,0,0,0,0,0,0,0,0,0,0,0,0,0,0,0,0,0,0,0,0,0,0,0,0,0,0,0,0,0,0,0,0,0,0,0,0,0,0,0,0,0,0,0,0,0,0,0,0,0,0,0,0,0,0,0,0,0,0,0,0,0,0,0,0,0,0,0,0,0,0,0,0,0,0,0,0,0,0,0,0,0,0,0,0,0,0,0,0,0,0,0,0,0,0,0,0,0,0,0,0,0,0,0,0,0,0,0,0,0,0,0,0,0,0,0,0,0,0,0,0,0,0,0,0,0,0,0,0,0,0,0,0,0,0,0,0,0,0,0,0,0,0,0,0,0,0,0,0,0,0,0,0,0,0,0,0,0,0,0,0,0,0,0,0,0,0,0,0,0,0,0,0,0,0,0,0,0,0,0,0,0,0,0,0,0,0,0,0,0,0,0,0,0,0,0,0,0,0,0,0,0,0,0,0,0,0,0,0,0,0,0,0,0,0,0,0,0,0,0,0,0,0,0,0,0,0,0,0,0,0,0,0,0,0,0,0,0,0,0,0,0,0,0,0,0,0,0,0,0,0,0,0,0,0,0,0,0,0,0,0,0,0,0,0,0,0,0,0,0,0,0,0,0,0,0,0,0,0,0,0,0,0,0,0,0,0,0,0,0,0,0,0,0,0,0,0,0,0,0,0,0,0,0,0,0,0,0,0,0,0,0,0,0,0,0,0,0,0,0,0,0,0,0,0,0,0,0,0,0,0,0,0,0,0,0,0,0,0,0,0,0,0,0,0,0,0,0,0,0,0,0,0,0,0,0,0,0,0,0,0,0,0,0,0,0,0,0,0,0,0,0,0,0,0,0,0,0,0,0],"sum_hessian":[1.203E3,8.36E2,3.67E2,6.64E2,1.72E2,2.34E2,1.33E2,1.8E2,4.84E2,1.45E2,2.7E1,1.71E2,6.3E1,8.7E1,4.6E1,2.6E1,1.54E2,2.41E2,2.43E2,4.9E1,9.6E1,1.3E1,1.4E1,1.21E2,5E1,4.3E1,2E1,3.9E1,4.8E1,4.2E1,4E0,2E0,2.4E1,6E1,9.4E1,1.22E2,1.19E2,7.9E1,1.64E2,1.2E1,3.7E1,4.9E1,4.7E1,3E0,1E1,1.2E1,2E0,6.1E1,6E1,2.2E1,2.8E1,3.5E1,8E0,7E0,1.3E1,2.7E1,1.2E1,1E1,3.8E1,1E0,1E0,2E0,2.2E1,4.4E1,1.6E1,6.5E1,2.9E1,1E1,1.12E2,2.8E1,9.1E1,1.2E1,6.7E1,1.35E2,2.9E1,1E0,1.1E1,1.1E1,2.6E1,4.1E1,8E0,2.8E1,1.9E1,5E0,5E0,1E1,5.1E1,3E1,3E1,1.9E1,3E0,1.2E1,1.6E1,2E0,3.3E1,5E0,2.2E1,3E0,3.5E1,1.5E1,2.9E1,6E0,1E1,3E1,3.5E1,1.2E1,1.7E1,9E0,1E0,2.3E1,5E0,7.3E1,1.8E1,4E0,8E0,5.8E1,9E0,3.3E1,1.02E2,2.6E1,3E0,9E0,2E0,5E0,6E0,3E0,2.3E1,4E1,1E0,5E0,3E0,5E0,2.3E1,1.2E1,7E0,3E0,2E0,4E0,1E0,8E0,2E0,7E0,4.4E1,1.2E1,1.8E1,2E1,1E1,1E0,1.8E1,2E0,1E0,7E0,9E0,1E0,1E0,1.8E1,1.5E1,4E0,1E0,4E0,1.8E1,1E1,5E0,3E0,2.6E1,2E0,4E0,7E0,3E0,2.8E1,2E0,1.8E1,1.7E1,7E0,5E0,1.5E1,2E0,6E0,3E0,2.1E1,2E0,3E0,2E0,1.7E1,1E0,7E0,1E0,1.5E1,4.3E1,6E0,3E0,2.8E1,5E0,8.3E1,1.9E1,9E0,1.7E1,1E0,2E0,6E0,3E0,4E0,1E0,2E0,4E0,1E0,2E0,2.2E1,1E0,3E1,1E1,1E0,4E0,1E0,2E0,3E0,2E0,1.2E1,1.1E1,2E0,1E1,4E0,3E0,2E0,1E0,2E0,6E0,2E0,5E0,3.4E1,1E1,1E1,8E0,1.3E1,7E0,4E0,6E0,1.3E1,5E0,7E0,1.1E1,2E0,1.3E1,3E0,1E0,1E0,3E0,9E0,1E0,2E0,3E0,5E0,2.1E1,5E0,2E0,2E0,1E0,1.9E1,9E0,1.6E1,2E0,1E1,7E0,2E0,3E0,1E0,1.4E1,1E0,1E0,2E0,4E0,2E0,1E0,1.9E1,2E0,1E0,1E0,2E0,5E0,1E0,1.4E1,6E0,3.7E1,1E0,5E0,2E0,1E0,2.7E1,1E0,1E0,4E0,2.1E1,6.2E1,3E0,1.6E1,7E0,2E0,1.1E1,6E0,5E0,1E0,1E0,1E0,1E0,3E0,1E0,2.9E1,1E0,9E0,2E0,1E0,1E0,1E0,1E0,1.1E1,1E1,1E0,1E0,1E0,6E0,4E0,1E0,3E0,2E0,1E0,5E0,1E0,1E0,1E0,4E0,1E0,4E0,3E1,9E0,1E0,6E0,2E0,3E0,1E1,3E0,4E0,4E0,9E0,1E0,4E0,5E0,2E0,1E0,1E1,1E0,1E0,1E0,1.2E1,2E0,1E0,3E0,6E0,1E0,2E0,2E0,3E0,5E0,1.6E1,4E0,1E0,1.1E1,8E0,3E0,6E0,1.5E1,1E0,4E0,6E0,5E0,2E0,1.3E1,1E0,4E0,1E0,3E0,2E0,4E0,2.3E1,3E0,1E0,5.6E1,6E0,1E0,2E0,1.2E1,4E0,1E0,1E0,6E0,5E0,3E0,3E0,3E0,2E0,2.6E1,3E0,3E0,6E0,1E1,1E0,2E0,8E0,2E0,4E0,1E0,3E0,2.1E1,9E0,8E0,1E0,1E0,5E0,1E0,1E0,4E0,6E0,1E0,2E0,2E0,2E0,2E0,2E0,3E0,7E0,1.1E1,1E0,1E0,2E0,1E0,2E0,3E0,2E0,6E0,5E0,4E0,4E0,2E0,1E0,1.4E1,1E0,2E0,2E0,2E0,4E0,1E0,4E0,1.1E1,2E0,1E0,3E0,1E0,2.2E1,2.8E1,2.8E1,2E0,4E0,3E0,1E0,4E0,1E0,2E0,1E0,3E0,3E0,9E0,1E0,3E0,5E0,3E0,1E0,1.8E1,3E0,4E0,5E0,1E0,4E0,1E0,3E0,5E0,1E0,1E0,1E0,8E0,3E0,1E0,1E0,5E0,1E0,3E0,2E0,1E0,3E0,3E0,1E0,1.2E1,2E0,1E0,3E0,9E0,2E0,1E0,2E0,2E0,2E1,2.7E1,1E0,3E0,1E0,3E0,2E0,1.6E1,2E0,2E0,1E0,1E0,3E0,3E0,2E0,4E0,1E0,1E0,2E0,1E0,1.9E1,2E0,1.4E1,1E0,1E0,2E0,1E0,2E0,1.7E1,1E0,1E0,4E0,1.3E1],"tree_param":{"num_deleted":"0","num_feature":"30","num_nodes":"541","size_leaf_vector":"1"}},{"base_weights":[2.6724765E0,-3.0497318E2,7.0239185E2,-4.1192953E2,1.0792256E2,4.0351517E2,1.2212996E3,-1.6834344E2,-5.0198553E2,1.3490152E1,5.9646576E2,2.5740027E2,7.8989404E2,9.667668E2,1.6718865E3,-9.536252E1,-4.4047263E2,-6.259791E2,-3.76951E2,2.0889383E2,-8.737247E1,2.8625204E2,8.462342E2,1.5319456E2,5.0162955E2,6.2709625E2,1.1424628E3,7.001436E2,1.1646884E3,1.276185E3,2.8422305E2,-2.3146112E2,-2.2727858E1,-4.814949E2,-1.4143803E2,-7.52626E2,-5.513364E2,-5.4935803E2,-2.9107513E2,-3.9383186E1,2.883335E2,-2.7578607E2,1.1071197E2,-9.03999E0,3.862359E2,9.0657654E2,4.540088E1,4.436859E2,-1.4457031E2,2.4503745E2,6.8783606E2,7.7522375E2,4.1383853E2,2.1467168E2,8.54803E2,4.810313E2,1.1182206E3,9.8684436E2,2.3082146E2,5.707899E2,1.6121062E3,-2.9178552E2,-7.125177E1,3.3493443E1,-1.5183473E2,-3.5746115E2,-6.065047E2,-3.3730812E1,-4.350299E1,-4.8730377E2,-1.17692406E2,-5.799846E2,-4.058777E2,-7.790943E1,-6.314091E2,-3.3538818E2,-8.0486725E1,2.0451462E1,-6.538897E1,5.7540924E1,3.8022897E2,-3.2285458E2,-2.5490112E1,-3.253487E1,3.1288428E2,1.2215149E2,5.859477E2,1.029112E2,1.8467807E2,6.3781693E1,5.155178E2,-3.2935443E2,4.4877365E1,2.904918E2,-4.3493683E1,1.2581917E2,5.48984E2,-4.922251E1,8.324847E2,2.9852206E2,1.0847203E2,6.217869E2,1.7480827E2,-4.0595642E1,5.9619354E2,4.4912155E1,1.7422548E2,1.6696173E2,1.0168292E2,9.407332E1,1.3217322E1,9.986795E1,2.7441354E2,-1.1887417E2,-3.6311157E2,-1.851234E2,2.523192E1,-4.2204437E0,1.5397025E2,-3.1162134E2,-2.071353E1,-4.29858E2,-2.292582E2,-9.66354E1,-3.612515E1,-1.8655844E1,-8.8533325E0,-5.4432947E2,1.0498407E1,-5.838293E2,-6.8780003E0,-9.761995E1,-6.769412E1,-2.2343523E2,1.1594835E1,-6.975494E2,-1.7804053E2,-1.0192264E2,-4.091983E2,-1.2999718E2,2.7383044E2,-1.0307185E2,1.2302546E1,1.7917424E2,-5.4936333E1,1.8802289E2,3.9642044E2,-3.3654022E2,1.786919E1,1.3294627E2,-2.5677216E2,-5.9720634E1,9.292645E0,4.0979782E2,1.1628926E2,-1.6666077E1,3.9978664E1,9.482326E1,2.6618309E1,1.4123563E2,-2.8476099E1,1.7686603E2,5.6426666E2,-8.4640915E1,-2.2311012E2,-3.6139782E1,1.954667E2,-1.5091553E-1,3.0588675E2,-7.4668646E0,-1.847809E0,5.446092E1,9.921086E1,8.796749E2,2.8979727E1,5.8848835E1,3.2655524E2,1.3345879E2,4.1812958E2,-1.7695386E2,4.808966E1,2.1128189E2,9.9916115E1,-1.6311398E2,-2.4315624E1,-1.814177E2,-4.2369153E2,-3.5721977E1,-3.5043743E1,1.1833462E2,-1.207301E2,6.732556E1,-1.1304196E2,1.9005923E2,-9.865278E0,-4.354061E2,-9.463806E1,-8.0965706E1,2.8745187E2,-7.029259E1,-2.5544155E1,-5.657776E0,-2.4848584E2,-7.4687533E0,3.2711885E0,-6.044573E2,4.2711825E0,-8.810543E1,-3.6256622E1,-3.849697E1,4.038646E1,-3.7291485E1,-9.205243E0,7.190175E1,-3.5314537E1,-9.770768E2,-6.2769293E2,-2.974795E2,7.548779E1,-5.112655E1,-3.3044998E2,-4.5681284E2,-1.887573E2,-4.049647E1,-4.500883E1,-1.878415E0,5.6018368E1,-6.960653E1,-2.038023E1,3.957822E1,-1.8317139E1,1.0435258E2,-1.3952242E2,1.5727388E0,3.6556087E1,2.851277E2,6.662814E1,-3.6716934E2,-2.1962717E2,3.341443E1,2.6153788E1,-1.1492386E1,-4.3692844E1,2.3579001E2,-4.034994E1,7.639205E1,4.6347232E2,-1.0536533E2,3.642852E2,-6.518207E0,4.7774873E0,-1.4900098E1,2.2416037E2,-5.9709393E1,2.6567606E2,4.7391788E2,1.20066475E2,-2.965041E2,-7.599681E1,-1.02020256E2,8.366852E1,1.3105701E1,3.671308E1,2.2496828E1,3.374636E2,9.390989E1,1.0599777E3,1.2075101E1,1.1658875E0,8.297306E0,3.4197842E2,1.849034E1,6.700923E1,-2.363536E2,4.5483856E0,9.112289E0,3.505921E1,-2.1075165E0,-2.736025E1,4.5900974E0,-4.5694855E1,-4.6232494E1,3.3653047E0,-9.70336E1,-3.3592566E2,1.0831056E0,-8.967948E0,2.6267195E1,3.1830647E0,-2.9359106E1,7.819629E0,1.4293925E2,-7.060885E1,-1.8293439E2,1.4720068E2,9.6655495E1,2.3121071E2,-4.8928503E2,-4.3690157E0,-2.0213938E1,-9.59668E0,-1.765606E2,1.4553618E2,8.980097E0,5.5696575E1,-1.5343965E1,-4.202519E1,-6.617767E2,-3.7517975E1,-6.194214E0,1.1651638E2,-1.539663E2,-3.99593E1,-3.9158374E2,-6.5099E2,1.0285584E0,-3.493451E2,1.7812963E1,-4.073108E0,-2.0156643E1,-6.88713E1,1.1164765E0,-3.9951724E2,-9.516597E1,-3.875334E2,6.071106E1,-2.3635236E2,-1.26068726E2,1.0038082E2,-8.655239E1,2.4051454E0,1.9573938E1,3.9053926E0,-2.2198243E0,-2.505054E1,7.702417E1,4.1102597E2,-1.3499955E1,-3.7340836E2,1.3890528E1,-2.601106E2,9.8364264E-1,6.534604E0,5.3804104E1,3.428935E1,4.7928074E1,-2.9845898E2,1.3758729E1,3.4294832E0,3.002833E2,8.9886375E1,-2.3229053E1,-8.141474E0,6.2747047E1,1.5164988E1,4.2448986E1,1.6393112E1,-1.8822786E0,-1.1552335E1,4.6282387E1,3.8482728E0,1.1785127E2,5.160603E2,-3.0731818E2,-1.088303E1,-1.1724223E1,-2.3010975E1,-3.6050503E1,-4.2448807E1,-6.0303253E1,1.8211223E2,1.7801625E2,5.990785E1,1.72548E2,4.0551102E2,3.558438E2,1.2129648E1,-4.27491E1,-6.7824373E0,-2.5112367E0,-9.941602E0,-5.508272E1,-5.6234272E1,-4.278717E0,4.994907E0,2.0228468E2,4.1335938E1,-1.6661716E2,2.4459312E1,-2.3504354E1,-2.4740488E2,-3.5699983E0,2.9385128E1,2.6210213E1,-5.9502993E0,3.7281265E1,6.9421787E0,-2.0711308E1,-7.8721115E1,-1.7636262E0,-3.9562684E-1,-1.9029358E2,-2.9423037E0,-6.4984865E0,3.053728E1,-2.9683851E1,-1.0496634E2,2.108055E1,-2.6900026E-1,-7.731994E1,-3.5840626E1,-1.12681465E2,-7.749366E1,-6.110217E1,-1.5555977E2,-2.1421567E2,2.1112183E1,-7.402931E1,-1.7603486E0,-4.1956418E2,-7.134919E1,4.4723824E1,-1.767367E1,-4.8146442E1,3.0940258E1,-1.5457565E2,-4.5616426E0,-1.2662436E2,4.534362E1,-4.838306E0,-1.5845559E1,2.369215E1,-1.8500237E1,4.7079712E2,8.412772E0,-5.8102398E1,-2.7893236E1,-6.0825912E1,-1.7307346E2,8.946085E0,-1.2309815E0,-3.3207638E1,9.542863E1,-2.3233925E1,-5.8559135E1,6.423324E1,1.6346367E2,4.211481E0,1.9991373E1,5.554963E2,1.6648994E1,-4.9080425E1,-1.8801039E1,-4.4982666E1,3.6528442E1,-1.1550433E1,-1.1703212E1,1.2920902E1,-2.0674585E1,4.9100445E1,-2.3815878E1,-8.505698E0,2.3630136E2,1.6790379E1,7.444961E1,2.0217038E2,4.0167972E2,-1.0130457E1,-2.2631562E0,2.3275989E2,1.0697237E2,-5.407556E1,2.6117882E1,3.6777668E1,-2.2998392E2,5.227112E0,-9.208814E0,-2.8491238E2,-3.991154E1,-3.1225985E1,-1.1877502E1,-2.8369099E1,-6.6318517E0,-5.2156067E1,-9.3916046E1,5.696654E1,-1.0993976E1,-6.7677216E1,-4.514359E1,3.5791946E1,-2.4305664E2,-1.7817032E1,4.7236664E1,-1.6721178E2,-4.0115023E0,-8.7087345E0,-2.4924208E1,7.929941E1,1.7950104E1,-1.8520018E2,-6.6139803E0,2.4343771E2,2.5805786E1,3.2298393E1,-3.2979035E0,5.8250385E2,1.3626543E2,-8.403083E0,-8.901764E-1,6.664774E0,1.554126E0,-2.3006918E1,4.2089267E0,-4.9939637E0,-3.6460876E-1,2.9744751E1,5.461363E1,2.509414E2,5.314728E-1,1.6601221E1,6.363315E1,5.445228E1,1.4368478E2,3.8413148E0,2.2901777E1,3.2575043E1,-2.2737679E1,1.6814393E0,6.593537E0,-3.7411823E1,-8.506092E0,-3.4081256E2,-1.6084969E2,6.1750855E0,-1.5155183E1,-2.6324434E0,-1.7028248E1,3.3396545E1,-4.3847256E1,-4.0107353E1,-1.0931534E1,-2.66092E1,-7.1948733E0,-3.7756283E1,-1.623827E1,5.0358692E1,-9.428238E0,3.4404778E1,-1.3550992E1,6.1018463E2,2.5033419E1,2.4909386E1,5.7503357E0,-4.5506144E0,1.0234222E0,1.1932087E1,-5.239517E0,4.3967125E1,9.331733E0,5.873703E0,2.3186937E1,-2.24574E0,1.3141123E1,-1.291128E1,-5.6181755E1,3.9093752E0,-2.1409335E2,3.3079193E1,-6.8092415E1,-5.307454E1,6.888385E1,6.6407776E2,3.3782565E2,-9.203422E0,-3.668306E1,-1.0245165E2,5.5475636E1,9.55957E0,-7.886532E1,1.513592E1,-2.038724E0,1.0638976E2,1.8665694E2,-3.8415651E0,7.8891945E1,-2.4938545E1,-2.679634E0,-1.6142624E1,1.8472994E1,-1.3472856E1,-9.8573E-1,4.522624E1,-3.2284243E0],"categories":[],"categories_nodes":[],"categories_segments":[],"categories_sizes":[],"default_left":[0,0,0,0,0,0,0,0,0,0,0,0,0,0,0,0,0,0,0,0,0,0,0,0,0,0,0,0,0,0,0,0,0,0,0,0,0,0,0,0,0,0,0,0,0,0,0,0,0,0,0,0,0,0,0,0,0,0,0,0,0,0,0,0,0,0,0,0,0,0,0,0,0,0,0,0,0,0,0,0,0,0,0,0,0,0,0,0,0,0,0,0,0,0,0,0,0,0,0,0,0,0,0,0,0,0,0,0,0,0,0,0,0,0,0,0,0,0,0,0,0,0,0,0,0,0,0,0,0,0,0,0,0,0,0,0,0,0,0,0,0,0,0,0,0,0,0,0,0,0,0,0,0,0,0,0,0,0,0,0,0,0,0,0,0,0,0,0,0,0,0,0,0,0,0,0,0,0,0,0,0,0,0,0,0,0,0,0,0,0,0,0,0,0,0,0,0,0,0,0,0,0,0,0,0,0,0,0,0,0,0,0,0,0,0,0,0,0,0,0,0,0,0,0,0,0,0,0,0,0,0,0,0,0,0,0,0,0,0,0,0,0,0,0,0,0,0,0,0,0,0,0,0,0,0,0,0,0,0,0,0,0,0,0,0,0,0,0,0,0,0,0,0,0,0,0,0,0,0,0,0,0,0,0,0,0,0,0,0,0,0,0,0,0,0,0,0,0,0,0,0,0,0,0,0,0,0,0,0,0,0,0,0,0,0,0,0,0,0,0,0,0,0,0,0,0,0,0,0,0,0,0,0,0,0,0,0,0,0,0,0,0,0,0,0,0,0,0,0,0,0,0,0,0,0,0,0,0,0,0,0,0,0,0,0,0,0,0,0,0,0,0,0,0,0,0,0,0,0,0,0,0,0,0,0,0,0,0,0,0,0,0,0,0,0,0,0,0,0,0,0,0,0,0,0,0,0,0,0,0,0,0,0,0,0,0,0,0,0,0,0,0,0,0,0,0,0,0,0,0,0,0,0,0,0,0,0,0,0,0,0,0,0,0,0,0,0,0,0,0,0,0,0,0,0,0,0,0,0,0,0,0,0,0,0,0,0,0,0,0,0,0,0,0,0,0,0,0,0,0,0,0,0,0,0,0,0,0,0,0,0,0,0,0,0,0,0,0,0,0,0,0,0,0,0,0,0,0,0,0,0,0,0,0,0,0,0,0,0,0,0,0,0,0,0,0,0,0,0,0,0,0,0,0,0,0,0,0,0,0,0,0,0,0,0,0,0,0,0,0,0,0,0,0,0,0,0,0,0,0,0,0,0,0,0,0,0,0,0,0,0,0,0,0,0,0,0,0,0,0,0,0,0,0,0,0,0,0,0,0,0,0,0],"id":2,"left_children":[1,3,5,7,9,11,13,15,17,19,21,23,25,27,29,31,33,35,37,39,41,43,45,47,49,51,53,55,57,59,-1,61,63,65,67,69,71,73,75,77,79,81,83,-1,85,87,-1,89,91,93,95,97,99,-1,101,103,105,107,-1,109,111,113,115,117,119,121,123,-1,125,127,-1,129,131,133,135,137,139,-1,141,143,145,147,149,151,153,155,157,-1,-1,159,161,163,165,167,169,-1,171,-1,173,175,-1,177,-1,179,181,-1,-1,-1,-1,-1,-1,-1,-1,183,185,187,189,191,193,195,197,199,201,-1,-1,203,-1,205,-1,207,-1,209,-1,211,213,215,217,219,221,223,225,227,-1,229,231,233,235,237,-1,239,241,-1,243,245,247,249,-1,-1,-1,251,-1,253,255,-1,257,259,261,-1,263,-1,-1,-1,-1,265,-1,267,269,-1,271,273,-1,275,-1,277,279,281,283,-1,285,287,289,291,293,295,-1,297,299,301,303,-1,-1,-1,305,-1,-1,307,-1,-1,-1,-1,-1,-1,-1,309,-1,311,313,315,317,319,321,323,325,-1,327,-1,-1,329,-1,-1,-1,331,333,-1,-1,335,-1,337,339,341,-1,-1,-1,343,345,347,349,351,353,-1,-1,-1,355,357,359,361,-1,363,365,367,369,-1,-1,-1,371,-1,373,-1,-1,-1,375,-1,-1,377,-1,-1,-1,-1,-1,-1,379,-1,-1,-1,381,-1,-1,-1,383,-1,-1,385,387,389,391,393,395,397,-1,-1,399,401,403,-1,-1,-1,-1,405,-1,-1,407,-1,-1,409,411,-1,413,-1,-1,415,-1,-1,417,-1,419,421,423,425,427,429,-1,-1,-1,-1,-1,431,433,-1,435,-1,437,-1,-1,-1,439,441,443,-1,-1,445,-1,-1,-1,-1,-1,-1,-1,-1,-1,-1,-1,447,449,451,-1,453,-1,-1,455,457,459,461,-1,-1,463,465,-1,-1,-1,-1,-1,467,-1,-1,-1,469,471,473,-1,475,477,-1,-1,-1,-1,-1,-1,-1,-1,-1,-1,479,-1,-1,-1,-1,-1,-1,-1,-1,-1,-1,-1,-1,481,483,485,-1,-1,487,489,-1,-1,-1,491,493,-1,495,-1,-1,-1,-1,-1,497,-1,-1,-1,-1,499,-1,-1,-1,501,-1,-1,-1,503,-1,-1,505,-1,-1,-1,507,509,-1,511,-1,-1,-1,513,-1,515,-1,-1,517,519,-1,-1,521,523,525,-1,527,529,-1,-1,531,533,-1,-1,-1,-1,-1,535,-1,537,-1,-1,-1,539,-1,-1,541,-1,-1,-1,-1,-1,543,-1,545,547,-1,-1,549,551,-1,-1,-1,-1,553,-1,-1,-1,555,-1,557,-1,-1,-1,-1,559,-1,-1,561,-1,-1,-1,-1,-1,563,565,-1,-1,-1,-1,-1,567,-1,-1,-1,-1,-1,-1,-1,-1,-1,569,571,-1,-1,-1,-1,-1,-1,-1,-1,-1,-1,-1,-1,-1,-1,-1,-1,573,-1,575,577,579,581,583,-1,-1,585,587,-1,589,-1,-1,-1,591,-1,-1,-1,-1,-1,-1,-1,-1,-1,-1],"loss_changes":[2.5939402E8,3.7007904E7,5.6580096E7,1.45032E7,7.9731895E6,1.3063768E7,1.3752032E7,3.552699E6,7.283224E6,2.895755E6,1.927248E6,4.300567E6,2.957004E6,3.828352E6,1.727976E6,1.4182479E6,3.98047E5,1.872736E6,3.452664E6,9.9750775E5,3.650748E6,5.08325E5,2.17601E5,1.0616914E7,2.26819E6,1.132292E6,3.54452E5,3.126332E6,1.741664E6,3.818968E6,0E0,4.624365E5,6.946484E5,2.94878E5,3.92441E4,3.5608E5,4.14668E5,3.045436E6,1.512755E6,6.8324016E4,7.8405525E5,5.8082325E5,1.4002859E6,0E0,5.08574E5,8.5819E4,0E0,1.659053E6,2.150203E6,3.142795E5,1.4738E5,1.915863E6,5.3315975E5,0E0,1.43833E5,1.7062105E6,1.1295E5,6.49492E5,0E0,1.6238775E5,1.455468E6,4.0082625E5,1.6947234E5,3.0507425E5,6.011362E5,7.779975E4,5.1804E4,0E0,4.413247E2,4.1945725E5,0E0,2.36088E5,3.61944E5,1.7191803E5,1.914852E6,2.301862E6,5.6186925E5,0E0,7.510981E4,1.7401494E5,9.49075E3,2.94141E5,3.6392828E5,4.4717506E5,3.3339938E5,1.24690914E5,1.072875E3,0E0,0E0,2.4289678E5,7.58662E5,6.4782575E5,3.8527403E5,9.0059625E4,1.705747E2,0E0,1.360695E5,0E0,5.8425E5,9.5002125E4,0E0,1.19088E5,0E0,3.522411E5,4.782095E5,0E0,0E0,0E0,0E0,0E0,0E0,0E0,0E0,4.6232812E4,1.9831E5,4.7358266E4,1.3659167E5,4.124694E5,1.3938238E5,3.0796375E5,3.3892356E5,3.08625E4,2.3773188E4,0E0,0E0,4.8654736E3,0E0,3.96068E5,0E0,1.1848E4,0E0,3.6080494E5,0E0,5.1431562E3,1.5100372E5,5.38776E5,3.2526766E5,3.7778728E5,9.94882E5,3.0905703E5,1.1878881E5,1.5180938E3,0E0,1.853001E5,1.0887489E5,3.6989094E4,9.37E2,6.61785E4,0E0,1.8904969E4,2.5541562E3,0E0,3.1309984E5,1.9723425E5,4.7813853E5,6.5827373E3,0E0,0E0,0E0,2.0180927E5,0E0,1.8394552E5,5.80878E5,0E0,2.2580288E5,1.7428945E5,3.7220375E4,0E0,4.2926125E4,0E0,0E0,0E0,0E0,3.88092E5,0E0,2.6919854E3,4.3834125E4,0E0,3.960625E3,6.872769E4,0E0,2.6958281E3,0E0,2.0438016E4,7.26863E3,2.1370172E5,1.352995E5,0E0,3.568893E3,3.8672438E4,6.2059836E4,3.4384406E5,4.088968E5,3.1463969E4,0E0,1.60868E5,1.9178691E4,3.5048228E5,3.502542E4,0E0,0E0,0E0,8.394281E3,0E0,0E0,3.75805E4,0E0,0E0,0E0,0E0,0E0,0E0,0E0,4.521328E4,0E0,7.7389E4,2.0116E4,1.1288769E5,2.0987947E4,3.57195E5,1.4299781E5,7.87828E5,2.518185E5,0E0,2.2478975E5,0E0,0E0,1.1546605E4,0E0,0E0,0E0,2.744164E3,1.4666305E4,0E0,0E0,2.3033994E5,0E0,2E4,1.6312894E5,5.3208105E2,0E0,0E0,0E0,1.1152678E5,5.3836775E5,3.6511523E2,6.37755E4,4.2379375E3,1.45865E4,0E0,0E0,0E0,1.63805625E4,1.4820908E3,5.3826844E4,4.64374E5,0E0,1.4030125E4,4.2979312E4,1.0515392E5,1.2436688E5,0E0,0E0,0E0,7.7002375E4,0E0,2.43044E5,0E0,0E0,0E0,2.191125E4,0E0,0E0,2.430161E4,0E0,0E0,0E0,0E0,0E0,0E0,1.2741348E3,0E0,0E0,0E0,1.4351438E5,0E0,0E0,0E0,3.8146274E3,0E0,0E0,1.1826194E5,2.9638116E5,1.6892E5,4.6301227E4,7.0796016E4,1.7342406E4,1.4867625E4,0E0,0E0,1.4102112E1,1.9975906E4,6.3632195E4,0E0,0E0,0E0,0E0,2.53625E3,0E0,0E0,1.7303258E4,0E0,0E0,9.20725E3,2.04412E5,0E0,4.0734375E3,0E0,0E0,2.2876303E5,0E0,0E0,1.7648775E5,0E0,6.08105E5,2.0470184E5,3.9445988E5,2.8022125E4,3.5911962E5,2.810082E3,0E0,0E0,0E0,0E0,0E0,1.00549234E5,1.0088656E5,0E0,6.369E3,0E0,5.6365688E4,0E0,0E0,0E0,3.7214104E3,2.513911E5,1.87235E4,0E0,0E0,5.2532625E4,0E0,0E0,0E0,0E0,0E0,0E0,0E0,0E0,0E0,0E0,0E0,3.18175E3,4.33544E5,9.64825E3,0E0,1.1271998E4,0E0,0E0,1.0785061E4,5.7285836E4,1.5732436E5,9.54838E4,0E0,0E0,2.443E4,1.036125E4,0E0,0E0,0E0,0E0,0E0,4.7528223E2,0E0,0E0,0E0,1.286175E4,1.2343705E5,1.244545E5,0E0,1.5404253E4,8.2019375E4,0E0,0E0,0E0,0E0,0E0,0E0,0E0,0E0,0E0,0E0,3.3822812E3,0E0,0E0,0E0,0E0,0E0,0E0,0E0,0E0,0E0,0E0,0E0,0E0,2.8512188E3,4.7639562E4,2.8054356E5,0E0,0E0,7.7965E4,4.3055612E5,0E0,0E0,0E0,2.4998642E5,1.0065922E4,0E0,1.1965664E3,0E0,0E0,0E0,0E0,0E0,3.8328E4,0E0,0E0,0E0,0E0,4.346797E3,0E0,0E0,0E0,1.585949E5,0E0,0E0,0E0,5.2820203E4,0E0,0E0,2.37653E5,0E0,0E0,0E0,1.391581E3,1.6008643E2,0E0,3.7918252E3,0E0,0E0,0E0,5.2708875E2,0E0,1.2114903E5,0E0,0E0,4.754714E4,1.2086E4,0E0,0E0,5.226275E4,1.468418E4,5.5633125E4,0E0,5.7938477E1,9.42175E3,0E0,0E0,1.453175E4,1.9026648E4,0E0,0E0,0E0,0E0,0E0,3.9965742E3,0E0,1.8630483E5,0E0,0E0,0E0,1.2127188E3,0E0,0E0,1.20525E3,0E0,0E0,0E0,0E0,0E0,8.573672E3,0E0,1.624359E5,9.924542E4,0E0,0E0,1.97284E5,2.3879805E3,0E0,0E0,0E0,0E0,1.5189895E3,0E0,0E0,0E0,1.2441502E4,0E0,1.3601953E4,0E0,0E0,0E0,0E0,1.9185469E3,0E0,0E0,1.1778055E4,0E0,0E0,0E0,0E0,0E0,1.9318438E4,5.5339273E4,0E0,0E0,0E0,0E0,0E0,1.4962247E5,0E0,0E0,0E0,0E0,0E0,0E0,0E0,0E0,0E0,3.9495273E4,1.27936E5,0E0,0E0,0E0,0E0,0E0,0E0,0E0,0E0,0E0,0E0,0E0,0E0,0E0,0E0,0E0,0E0,3.6048594E3,0E0,9.059765E4,2.9126066E4,1.1935658E4,2.77504E5,4.236887E5,0E0,0E0,8.3383984E4,6.844225E4,0E0,4.9529453E3,0E0,0E0,0E0,7.821847E4,0E0,0E0,0E0,0E0,0E0,0E0,0E0,0E0,0E0,0E0],"parents":[2147483647,0,0,1,1,2,2,3,3,4,4,5,5,6,6,7,7,8,8,9,9,10,10,11,11,12,12,13,13,14,14,15,15,16,16,17,17,18,18,19,19,20,20,21,21,22,22,23,23,24,24,25,25,26,26,27,27,28,28,29,29,31,31,32,32,33,33,34,34,35,35,36,36,37,37,38,38,39,39,40,40,41,41,42,42,44,44,45,45,47,47,48,48,49,49,50,50,51,51,52,52,54,54,55,55,56,56,57,57,59,59,60,60,61,61,62,62,63,63,64,64,65,65,66,66,68,68,69,69,71,71,72,72,73,73,74,74,75,75,76,76,78,78,79,79,80,80,81,81,82,82,83,83,84,84,85,85,86,86,89,89,90,90,91,91,92,92,93,93,94,94,96,96,98,98,99,99,101,101,103,103,104,104,113,113,114,114,115,115,116,116,117,117,118,118,119,119,120,120,121,121,122,122,125,125,127,127,129,129,131,131,133,133,134,134,135,135,136,136,137,137,138,138,139,139,140,140,141,141,143,143,144,144,145,145,146,146,147,147,149,149,150,150,152,152,153,153,154,154,155,155,159,159,161,161,162,162,164,164,165,165,166,166,168,168,173,173,175,175,176,176,178,178,179,179,181,181,183,183,184,184,185,185,186,186,188,188,189,189,190,190,191,191,192,192,193,193,195,195,196,196,197,197,198,198,202,202,205,205,213,213,215,215,216,216,217,217,218,218,219,219,220,220,221,221,222,222,224,224,227,227,231,231,232,232,235,235,237,237,238,238,239,239,243,243,244,244,245,245,246,246,247,247,248,248,252,252,253,253,254,254,255,255,257,257,258,258,259,259,260,260,264,264,266,266,270,270,273,273,280,280,284,284,288,288,291,291,292,292,293,293,294,294,295,295,296,296,297,297,300,300,301,301,302,302,307,307,310,310,313,313,314,314,316,316,319,319,322,322,324,324,325,325,326,326,327,327,328,328,329,329,335,335,336,336,338,338,340,340,344,344,345,345,346,346,349,349,361,361,362,362,363,363,365,365,368,368,369,369,370,370,371,371,374,374,375,375,381,381,385,385,386,386,387,387,389,389,390,390,401,401,414,414,415,415,416,416,419,419,420,420,424,424,425,425,427,427,433,433,438,438,442,442,446,446,449,449,453,453,454,454,456,456,460,460,462,462,465,465,466,466,469,469,470,470,471,471,473,473,474,474,477,477,478,478,484,484,486,486,490,490,493,493,499,499,501,501,502,502,505,505,506,506,511,511,515,515,517,517,522,522,525,525,531,531,532,532,538,538,548,548,549,549,566,566,568,568,569,569,570,570,571,571,572,572,575,575,576,576,578,578,582,582],"right_children":[2,4,6,8,10,12,14,16,18,20,22,24,26,28,30,32,34,36,38,40,42,44,46,48,50,52,54,56,58,60,-1,62,64,66,68,70,72,74,76,78,80,82,84,-1,86,88,-1,90,92,94,96,98,100,-1,102,104,106,108,-1,110,112,114,116,118,120,122,124,-1,126,128,-1,130,132,134,136,138,140,-1,142,144,146,148,150,152,154,156,158,-1,-1,160,162,164,166,168,170,-1,172,-1,174,176,-1,178,-1,180,182,-1,-1,-1,-1,-1,-1,-1,-1,184,186,188,190,192,194,196,198,200,202,-1,-1,204,-1,206,-1,208,-1,210,-1,212,214,216,218,220,222,224,226,228,-1,230,232,234,236,238,-1,240,242,-1,244,246,248,250,-1,-1,-1,252,-1,254,256,-1,258,260,262,-1,264,-1,-1,-1,-1,266,-1,268,270,-1,272,274,-1,276,-1,278,280,282,284,-1,286,288,290,292,294,296,-1,298,300,302,304,-1,-1,-1,306,-1,-1,308,-1,-1,-1,-1,-1,-1,-1,310,-1,312,314,316,318,320,322,324,326,-1,328,-1,-1,330,-1,-1,-1,332,334,-1,-1,336,-1,338,340,342,-1,-1,-1,344,346,348,350,352,354,-1,-1,-1,356,358,360,362,-1,364,366,368,370,-1,-1,-1,372,-1,374,-1,-1,-1,376,-1,-1,378,-1,-1,-1,-1,-1,-1,380,-1,-1,-1,382,-1,-1,-1,384,-1,-1,386,388,390,392,394,396,398,-1,-1,400,402,404,-1,-1,-1,-1,406,-1,-1,408,-1,-1,410,412,-1,414,-1,-1,416,-1,-1,418,-1,420,422,424,426,428,430,-1,-1,-1,-1,-1,432,434,-1,436,-1,438,-1,-1,-1,440,442,444,-1,-1,446,-1,-1,-1,-1,-1,-1,-1,-1,-1,-1,-1,448,450,452,-1,454,-1,-1,456,458,460,462,-1,-1,464,466,-1,-1,-1,-1,-1,468,-1,-1,-1,470,472,474,-1,476,478,-1,-1,-1,-1,-1,-1,-1,-1,-1,-1,480,-1,-1,-1,-1,-1,-1,-1,-1,-1,-1,-1,-1,482,484,486,-1,-1,488,490,-1,-1,-1,492,494,-1,496,-1,-1,-1,-1,-1,498,-1,-1,-1,-1,500,-1,-1,-1,502,-1,-1,-1,504,-1,-1,506,-1,-1,-1,508,510,-1,512,-1,-1,-1,514,-1,516,-1,-1,518,520,-1,-1,522,524,526,-1,528,530,-1,-1,532,534,-1,-1,-1,-1,-1,536,-1,538,-1,-1,-1,540,-1,-1,542,-1,-1,-1,-1,-1,544,-1,546,548,-1,-1,550,552,-1,-1,-1,-1,554,-1,-1,-1,556,-1,558,-1,-1,-1,-1,560,-1,-1,562,-1,-1,-1,-1,-1,564,566,-1,-1,-1,-1,-1,568,-1,-1,-1,-1,-1,-1,-1,-1,-1,570,572,-1,-1,-1,-1,-1,-1,-1,-1,-1,-1,-1,-1,-1,-1,-1,-1,574,-1,576,578,580,582,584,-1,-1,586,588,-1,590,-1,-1,-1,592,-1,-1,-1,-1,-1,-1,-1,-1,-1,-1],"split_conditions":[4.7730866E-1,6.0080457E-1,1.400442E0,-8.3874685E-1,1.517716E0,5.5547565E-1,8.029543E-1,1.2796918E0,-2.0744812E-3,-9.829365E-1,4.1868797E-1,1.4952861E0,1.4168941E0,1.9655068E0,1.7875172E0,-2.502812E-1,-6.0489416E-1,-3.5052514E-1,-5.4019856E-1,-2.8844982E-1,-2.0744812E-3,-6.008571E-1,1.2635199E0,9.9616593E-1,9.817091E-1,1.032962E0,9.94198E-1,1.4952861E0,9.344318E-2,1.4952861E0,2.8422305E2,-5.0119466E-1,-9.9287456E-1,-1.0206344E0,-1.0003148E0,-7.205612E-1,3.664766E-1,-6.163169E-1,3.4256542E-1,-1.3867272E0,7.571196E-1,9.965058E-1,6.6135246E-1,-9.03999E0,2.0212479E0,-8.8353837E-1,4.540088E1,5.6553966E-1,9.817091E-1,2.658992E-1,2.4854656E-1,-9.294481E-1,1.4952861E0,2.1467168E2,1.4952861E0,-8.124131E-1,-2.0508904E0,1.2796918E0,2.3082146E2,6.817258E-2,4.1868797E-1,-1.1474588E0,-5.879203E-1,1.032962E0,-1.0003148E0,-1.5316156E0,-1.9392112E-1,-3.3730812E1,-5.1950914E-1,-1.2480116E-1,-1.17692406E2,1.6140352E0,-3.9393127E-1,-2.0508904E0,3.7125587E-1,-4.6229452E-1,2.0802479E0,2.0451462E1,-1.0353659E0,4.6362582E-1,8.2484806E-1,4.4033885E0,1.0118679E0,-1.2377827E0,-3.0075717E-1,1.19485825E-1,2.0802479E0,1.029112E2,1.8467807E2,1.2796918E0,-1.4408524E0,-1.2577784E0,-1.1328822E-2,4.8526263E-1,4.7913578E-1,1.2581917E2,-2.862409E-1,-4.922251E1,4.7913578E-1,5.2931666E-1,1.0847203E2,7.0994E-1,1.7480827E2,4.9594097E0,-8.15857E-1,4.4912155E1,1.7422548E2,1.6696173E2,1.0168292E2,9.407332E1,1.3217322E1,9.986795E1,2.7441354E2,-1.2507023E0,-6.0489416E-1,-2.0744812E-3,-3.6781853E-1,5.6248915E-1,5.136632E-1,6.2252617E-1,4.3319348E-1,2.562428E0,-1.1361623E0,-9.66354E1,-3.612515E1,2.0802479E0,-8.8533325E0,-6.328582E-1,1.0498407E1,-1.9753127E-1,-6.8780003E0,-4.3513155E-1,-6.769412E1,2.0802479E0,1.2635199E0,-1.3108629E0,4.3911913E-1,1.0689433E0,2.4354412E-1,-1.738338E-1,-2.1697333E0,-5.0119466E-1,1.2302546E1,7.4652195E-1,-1.4249694E0,1.9101124E-1,-1.0003148E0,1.1376467E0,1.786919E1,7.8592587E-1,-5.0119466E-1,-5.9720634E1,6.5617716E-1,6.422557E-1,1.19485825E-1,-8.15857E-1,3.9978664E1,9.482326E1,2.6618309E1,-3.2142025E-1,-2.8476099E1,-1.7651899E0,8.126216E-1,-8.4640915E1,-2.2927865E-1,1.2260871E0,3.108371E-1,-1.5091553E-1,-2.0079458E0,-7.4668646E0,-1.847809E0,5.446092E1,9.921086E1,6.0118324E-1,2.8979727E1,1.2796918E0,1.2230498E0,1.3345879E2,1.5488827E0,-2.7890688E-1,4.808966E1,-3.2142025E-1,9.9916115E1,-3.9393127E-1,-1.0003148E0,-1.037299E0,-8.654012E-1,-3.5721977E1,4.7913578E-1,-2.9155836E-1,4.4033885E0,-1.1609613E0,-5.0119466E-1,8.3348906E-1,-9.865278E0,7.350734E-1,1.4734656E-1,-8.904564E-1,-3.8120613E-1,-7.029259E1,-2.5544155E1,-5.657776E0,-1.3209885E0,-7.4687533E0,3.2711885E0,2.8808038E0,4.2711825E0,-8.810543E1,-3.6256622E1,-3.849697E1,4.038646E1,-3.7291485E1,-9.205243E0,-8.1402457E-1,-3.5314537E1,2.0802479E0,-4.438582E-1,4.7913578E-1,9.94198E-1,9.962429E0,2.1197376E-1,-2.945766E-1,3.7382266E-1,-4.049647E1,7.759537E-1,-1.878415E0,5.6018368E1,-2.7890688E-1,-2.038023E1,3.957822E1,-1.8317139E1,6.164146E-1,2.4854656E-1,1.5727388E0,3.6556087E1,-3.2142025E-1,6.662814E1,-1.0364091E0,-9.0097386E-1,-1.0003148E0,2.6153788E1,-1.1492386E1,-4.3692844E1,7.350734E-1,4.1868797E-1,4.4033885E0,8.6806667E-1,7.152779E-1,9.9616593E-1,-6.518207E0,4.7774873E0,-1.4900098E1,4.9167144E-1,4.7913578E-1,4.9594097E0,-1.5316156E0,1.20066475E2,8.5430527E-1,1.032962E0,-1.044477E0,-9.833736E-1,1.3105701E1,3.671308E1,2.2496828E1,1.2230498E0,9.390989E1,1.1376467E0,1.2075101E1,1.1658875E0,8.297306E0,1.4184315E0,1.849034E1,6.700923E1,9.962429E0,4.5483856E0,9.112289E0,3.505921E1,-2.1075165E0,-2.736025E1,4.5900974E0,-2.7890688E-1,-4.6232494E1,3.3653047E0,-9.70336E1,-8.461618E-2,1.0831056E0,-8.967948E0,2.6267195E1,-2.7890688E-1,-2.9359106E1,7.819629E0,-2.7890688E-1,-1.0766282E0,-1.4010023E0,7.6021576E-1,1.491048E-1,6.2529993E0,6.1698463E-2,-4.3690157E0,-2.0213938E1,4.7913578E-1,2.562428E0,-5.0119466E-1,8.980097E0,5.5696575E1,-1.5343965E1,-4.202519E1,4.7913578E-1,-3.7517975E1,-6.194214E0,4.0854836E0,-1.539663E2,-3.99593E1,9.94198E-1,1.19485825E-1,1.0285584E0,-7.85647E-1,1.7812963E1,-4.073108E0,-7.85647E-1,-6.88713E1,1.1164765E0,4.1096252E-1,-9.516597E1,6.2529993E0,4.9704573E-1,2.0136069E-1,2.7892575E-1,9.94198E-1,-1.0364091E0,2.4051454E0,1.9573938E1,3.9053926E0,-2.2198243E0,-2.505054E1,6.7047226E-1,1.4168941E0,-1.3499955E1,-2.945766E-1,1.3890528E1,-1.333889E0,9.8364264E-1,6.534604E0,5.3804104E1,4.9704573E-1,7.0825005E-1,7.777127E-1,1.3758729E1,3.4294832E0,-8.363238E-1,8.9886375E1,-2.3229053E1,-8.141474E0,6.2747047E1,1.5164988E1,4.2448986E1,1.6393112E1,-1.8822786E0,-1.1552335E1,4.6282387E1,3.8482728E0,9.94198E-1,7.535902E-1,4.4033885E0,-1.088303E1,1.2646441E-1,-2.3010975E1,-3.6050503E1,8.8143516E-1,1.2230498E0,-6.867836E-1,5.1581424E-1,5.990785E1,1.72548E2,9.9616593E-1,1.7740324E-2,1.2129648E1,-4.27491E1,-6.7824373E0,-2.5112367E0,-9.941602E0,-2.605062E-1,-5.6234272E1,-4.278717E0,4.994907E0,-1.2842036E0,-1.2052084E0,-6.867836E-1,2.4459312E1,-1.0003148E0,4.176824E-1,-3.5699983E0,2.9385128E1,2.6210213E1,-5.9502993E0,3.7281265E1,6.9421787E0,-2.0711308E1,-7.8721115E1,-1.7636262E0,-3.9562684E-1,7.6021576E-1,-2.9423037E0,-6.4984865E0,3.053728E1,-2.9683851E1,-1.0496634E2,2.108055E1,-2.6900026E-1,-7.731994E1,-3.5840626E1,-1.12681465E2,-7.749366E1,-6.110217E1,1.2796918E0,-3.2142025E-1,-7.317215E-1,-7.402931E1,-1.7603486E0,3.0360332E-1,-3.2121307E-1,4.4723824E1,-1.767367E1,-4.8146442E1,4.3319348E-1,3.3957694E0,-4.5616426E0,4.7913578E-1,4.534362E1,-4.838306E0,-1.5845559E1,2.369215E1,-1.8500237E1,4.0854836E0,8.412772E0,-5.8102398E1,-2.7893236E1,-6.0825912E1,9.94198E-1,8.946085E0,-1.2309815E0,-3.3207638E1,8.467659E-1,-2.3233925E1,-5.8559135E1,6.423324E1,9.94198E-1,4.211481E0,1.9991373E1,4.176824E-1,1.6648994E1,-4.9080425E1,-1.8801039E1,7.759537E-1,-3.8120613E-1,-1.1550433E1,-2.7890688E-1,1.2920902E1,-2.0674585E1,4.9100445E1,-3.2142025E-1,-8.505698E0,-1.4971162E0,1.6790379E1,7.444961E1,7.350734E-1,-9.294481E-1,-1.0130457E1,-2.2631562E0,-4.9941272E-1,-4.9941272E-1,-1.3867272E0,2.6117882E1,-2.7890688E-1,-2.0744812E-3,5.227112E0,-9.208814E0,6.7047226E-1,-1.0003148E0,-3.1225985E1,-1.1877502E1,-2.8369099E1,-6.6318517E0,-5.2156067E1,1.2230498E0,5.696654E1,-3.8397992E-1,-6.7677216E1,-4.514359E1,3.5791946E1,1.2095945E0,-1.7817032E1,4.7236664E1,7.0782983E-1,-4.0115023E0,-8.7087345E0,-2.4924208E1,7.929941E1,1.7950104E1,1.2065312E0,-6.6139803E0,-9.7200125E-2,-1.0364091E0,3.2298393E1,-3.2979035E0,4.4033885E0,-3.2142025E-1,-8.403083E0,-8.901764E-1,6.664774E0,1.554126E0,4.7913578E-1,4.2089267E0,-4.9939637E0,-3.6460876E-1,4.7913578E-1,5.461363E1,1.1662602E0,5.314728E-1,1.6601221E1,6.363315E1,5.445228E1,8.035934E-3,3.8413148E0,2.2901777E1,2.727305E0,-2.2737679E1,1.6814393E0,6.593537E0,-3.7411823E1,-8.506092E0,-4.46445E-3,-1.2212569E0,6.1750855E0,-1.5155183E1,-2.6324434E0,-1.7028248E1,3.3396545E1,-8.0893266E-1,-4.0107353E1,-1.0931534E1,-2.66092E1,-7.1948733E0,-3.7756283E1,-1.623827E1,5.0358692E1,-9.428238E0,3.4404778E1,2.3396666E-1,7.235478E-1,2.5033419E1,2.4909386E1,5.7503357E0,-4.5506144E0,1.0234222E0,1.1932087E1,-5.239517E0,4.3967125E1,9.331733E0,5.873703E0,2.3186937E1,-2.24574E0,1.3141123E1,-1.291128E1,-5.6181755E1,3.9093752E0,-1.0003148E0,3.3079193E1,1.2095945E0,-8.2029295E-1,-9.7200125E-2,2.179116E-1,9.94198E-1,-9.203422E0,-3.668306E1,-5.9171754E-1,-1.4201683E-1,9.55957E0,6.817258E-2,1.513592E1,-2.038724E0,1.0638976E2,-2.2619571E-1,-3.8415651E0,7.8891945E1,-2.4938545E1,-2.679634E0,-1.6142624E1,1.8472994E1,-1.3472856E1,-9.8573E-1,4.522624E1,-3.2284243E0],"split_indices":[28,27,28,28,27,27,27,1,0,28,25,0,27,28,28,27,26,27,27,26,0,29,25,0,28,15,5,0,27,0,0,0,28,28,0,28,27,28,28,28,27,26,25,0,27,28,0,28,28,25,26,25,0,0,0,27,27,1,0,25,25,28,25,15,0,25,27,0,27,23,0,25,26,27,28,28,1,0,28,25,27,3,25,26,28,28,1,0,0,1,27,27,27,28,1,0,27,0,1,28,0,28,0,12,26,0,0,0,0,0,0,0,0,28,26,0,27,25,27,26,27,4,25,0,0,1,0,25,0,28,0,25,0,1,25,27,28,23,27,27,25,0,0,27,28,26,0,27,0,27,0,0,27,27,28,26,0,0,0,1,0,26,28,0,27,28,25,0,27,0,0,0,0,28,0,1,2,0,27,23,0,1,0,26,0,25,27,0,1,29,3,28,0,26,0,7,27,28,25,0,0,0,28,0,0,1,0,0,0,0,0,0,0,28,0,1,28,1,5,13,25,28,27,0,26,0,0,23,0,0,0,25,26,0,0,1,0,26,28,0,0,0,0,7,25,3,25,25,0,0,0,0,28,1,12,25,0,28,15,27,25,0,0,0,2,0,27,0,0,0,26,0,0,13,0,0,0,0,0,0,23,0,0,0,25,0,0,0,23,0,0,23,28,28,25,27,19,27,0,0,1,4,0,0,0,0,0,1,0,0,6,0,0,5,28,0,25,0,0,25,0,0,27,0,19,0,28,27,5,26,0,0,0,0,0,26,27,0,28,0,25,0,0,0,0,27,27,0,0,28,0,0,0,0,0,0,0,0,0,0,0,5,28,3,0,27,0,0,26,2,25,28,0,0,0,29,0,0,0,0,0,23,0,0,0,28,28,25,0,0,27,0,0,0,0,0,0,0,0,0,0,25,0,0,0,0,0,0,0,0,0,0,0,0,1,1,25,0,0,28,27,0,0,0,27,9,0,1,0,0,0,0,0,6,0,0,0,0,5,0,0,0,27,0,0,0,5,0,0,27,0,0,0,26,25,0,23,0,0,0,1,0,27,0,0,7,25,0,0,26,26,28,0,23,0,0,0,26,0,0,0,0,0,0,2,0,27,0,0,0,25,0,0,23,0,0,0,0,0,27,0,23,26,0,0,3,1,0,0,0,0,1,0,0,0,1,0,27,0,0,0,0,27,0,0,23,0,0,0,0,0,27,28,0,0,0,0,0,28,0,0,0,0,0,0,0,0,0,28,28,0,0,0,0,0,0,0,0,0,0,0,0,0,0,0,0,0,0,25,28,23,23,5,0,0,28,27,0,25,0,0,0,27,0,0,0,0,0,0,0,0,0,0],"split_type":[0,0,0,0,0,0,0,0,0,0,0,0,0,0,0,0,0,0,0,0,0,0,0,0,0,0,0,0,0,0,0,0,0,0,0,0,0,0,0,0,0,0,0,0,0,0,0,0,0,0,0,0,0,0,0,0,0,0,0,0,0,0,0,0,0,0,0,0,0,0,0,0,0,0,0,0,0,0,0,0,0,0,0,0,0,0,0,0,0,0,0,0,0,0,0,0,0,0,0,0,0,0,0,0,0,0,0,0,0,0,0,0,0,0,0,0,0,0,0,0,0,0,0,0,0,0,0,0,0,0,0,0,0,0,0,0,0,0,0,0,0,0,0,0,0,0,0,0,0,0,0,0,0,0,0,0,0,0,0,0,0,0,0,0,0,0,0,0,0,0,0,0,0,0,0,0,0,0,0,0,0,0,0,0,0,0,0,0,0,0,0,0,0,0,0,0,0,0,0,0,0,0,0,0,0,0,0,0,0,0,0,0,0,0,0,0,0,0,0,0,0,0,0,0,0,0,0,0,0,0,0,0,0,0,0,0,0,0,0,0,0,0,0,0,0,0,0,0,0,0,0,0,0,0,0,0,0,0,0,0,0,0,0,0,0,0,0,0,0,0,0,0,0,0,0,0,0,0,0,0,0,0,0,0,0,0,0,0,0,0,0,0,0,0,0,0,0,0,0,0,0,0,0,0,0,0,0,0,0,0,0,0,0,0,0,0,0,0,0,0,0,0,0,0,0,0,0,0,0,0,0,0,0,0,0,0,0,0,0,0,0,0,0,0,0,0,0,0,0,0,0,0,0,0,0,0,0,0,0,0,0,0,0,0,0,0,0,0,0,0,0,0,0,0,0,0,0,0,0,0,0,0,0,0,0,0,0,0,0,0,0,0,0,0,0,0,0,0,0,0,0,0,0,0,0,0,0,0,0,0,0,0,0,0,0,0,0,0,0,0,0,0,0,0,0,0,0,0,0,0,0,0,0,0,0,0,0,0,0,0,0,0,0,0,0,0,0,0,0,0,0,0,0,0,0,0,0,0,0,0,0,0,0,0,0,0,0,0,0,0,0,0,0,0,0,0,0,0,0,0,0,0,0,0,0,0,0,0,0,0,0,0,0,0,0,0,0,0,0,0,0,0,0,0,0,0,0,0,0,0,0,0,0,0,0,0,0,0,0,0,0,0,0,0,0,0,0,0,0,0,0,0,0,0,0,0,0,0,0,0,0,0,0,0,0,0,0,0,0,0,0,0,0,0,0,0,0,0,0,0,0,0,0,0,0,0,0,0,0,0,0,0,0,0,0,0,0,0,0,0,0,0,0,0,0,0,0,0,0,0,0,0,0],"sum_hessian":[1.203E3,8.36E2,3.67E2,6.64E2,1.72E2,2.34E2,1.33E2,1.8E2,4.84E2,1.45E2,2.7E1,1.71E2,6.3E1,8.7E1,4.6E1,1.43E2,3.7E1,2.41E2,2.43E2,4.9E1,9.6E1,1.3E1,1.4E1,1.21E2,5E1,4.5E1,1.8E1,3.9E1,4.8E1,1.9E1,2.7E1,4.9E1,9.4E1,3.2E1,5E0,8.6E1,1.55E2,7.9E1,1.64E2,1.2E1,3.7E1,4.9E1,4.7E1,3E0,1E1,1.2E1,2E0,6.1E1,6E1,2.2E1,2.8E1,2.5E1,2E1,7E0,1.1E1,2.7E1,1.2E1,3.5E1,1.3E1,7E0,1.2E1,3.5E1,1.4E1,6.6E1,2.8E1,1.8E1,1.4E1,2E0,3E0,1.1E1,7.5E1,1.27E2,2.8E1,1.2E1,6.7E1,1.35E2,2.9E1,1E0,1.1E1,1.1E1,2.6E1,4.1E1,8E0,2.8E1,1.9E1,5E0,5E0,9E0,3E0,1E1,5.1E1,3E1,3E1,1.9E1,3E0,1.1E1,1.7E1,1E0,2.4E1,1.6E1,4E0,8E0,3E0,5E0,2.2E1,1E0,1.1E1,2.3E1,1.2E1,6E0,1E0,3E0,9E0,1.1E1,2.4E1,6E0,8E0,5.1E1,1.5E1,1.2E1,1.6E1,1E1,8E0,1.2E1,2E0,2E0,1E0,1E1,1E0,1.26E2,1E0,4E0,2.4E1,4E0,8E0,5.8E1,9E0,3.3E1,1.02E2,2.6E1,3E0,9E0,2E0,5E0,6E0,3E0,2.3E1,4E1,1E0,5E0,3E0,2E0,2.6E1,1.2E1,7E0,3E0,2E0,4E0,1E0,8E0,2E0,7E0,4.4E1,8E0,2.2E1,2E1,1E1,1E0,1.8E1,2E0,1E0,8E0,9E0,2.2E1,2E0,2E0,1.4E1,2E0,6E0,4E0,1E0,4E0,1.8E1,7E0,4E0,7E0,1.7E1,4E0,2E0,5E0,3E0,3.1E1,2E1,1.3E1,2E0,7E0,5E0,1.4E1,2E0,8E0,2E0,1E0,7E0,1E0,1E0,9E0,1E0,1.24E2,2E0,3E0,1E0,3E0,1E0,7E0,1E0,9E0,4.9E1,6E0,3E0,2.8E1,5E0,8.3E1,1.9E1,9E0,1.7E1,1E0,2E0,6E0,3E0,4E0,1E0,2E0,4E0,1E0,2E0,9E0,1.4E1,3E1,1E1,2E0,3E0,1E0,2E0,4E0,2.2E1,2E0,1E1,4E0,3E0,2E0,1E0,2E0,6E0,2E0,5E0,3.4E1,1E1,1.4E1,8E0,1.3E1,7E0,4E0,6E0,4E0,1.4E1,1.1E1,1.1E1,1E0,1E0,1E0,1.3E1,1E0,5E0,3E0,1E0,1E0,3E0,1E0,6E0,1E0,3E0,4E0,3E0,3E0,1.4E1,1E0,1E0,3E0,2E0,2E0,1E0,2E1,1.1E1,1.6E1,4E0,5E0,8E0,6E0,1E0,3E0,2E0,1E1,4E0,1E0,1E0,2E0,5E0,7E0,2E0,2E0,5E0,8E0,1E0,6E0,4.3E1,1E0,5E0,2E0,1E0,2.7E1,1E0,1E0,4E0,2.1E1,6.2E1,3E0,1.6E1,1.1E1,6E0,5E0,1E0,1E0,1E0,1E0,3E0,4E0,5E0,1E0,2.9E1,1E0,9E0,1E0,1E0,2E0,2E0,1.7E1,5E0,1E0,1E0,6E0,4E0,1E0,3E0,2E0,1E0,3E0,3E0,1E0,1E0,4E0,1E0,4E0,3E1,1.3E1,1E0,5E0,3E0,3E0,1E1,3E0,4E0,5E0,9E0,9E0,2E0,1.2E1,1E0,2E0,1E0,2E0,1E0,2E0,1.2E1,1E0,1E0,1.2E1,8E0,8E0,3E0,5E0,1.1E1,1E0,3E0,3E0,2E0,7E0,1E0,1E0,5E0,1E0,1E0,9E0,1E0,1E0,3E0,1E0,6E0,4E0,1E0,2E0,4E0,2.2E1,2.1E1,3E0,2E0,4E0,2.3E1,3E0,1E0,5.6E1,6E0,1E0,2E0,1.2E1,4E0,8E0,3E0,3E0,3E0,2E0,3E0,3E0,1E0,4E0,1E0,2.6E1,3E0,2E0,7E0,1E0,1E0,2E0,1.5E1,3E0,2E0,2E0,4E0,1E0,3E0,2.7E1,3E0,1.1E1,2E0,3E0,2E0,4E0,6E0,1E0,2E0,2E0,2E0,1E0,4E0,1E0,1E0,4E0,8E0,1E0,1E0,8E0,4E0,5E0,3E0,2E0,6E0,2E0,3E0,9E0,2E0,7E0,2E0,1E0,1E0,1E0,3E0,1E0,2.2E1,4.2E1,1.4E1,2E0,4E0,3E0,1E0,7E0,1E0,2E0,1E0,3E0,1E0,6E0,1E0,4E0,1.1E1,3E0,1E0,2.5E1,2E0,2E0,1E0,1E0,1E0,5E0,1E0,1E0,1E0,2E0,2E0,3E0,1E0,1E0,7E0,2E0,6E0,2E0,2E0,3E0,2E0,1E0,1E0,5E0,1E0,5E0,4E0,1E0,1E0,1E0,2E0,2E0,2E1,3E0,1E0,6E0,1E0,2E0,4E0,3E0,1E0,1E0,1E1,2.3E1,2E0,1E0,1E0,4E0,1E0,1E0,1E0,2E0,1E0,1E0,5E0,2E0,1E0,1E0,4E0,1E0,3E0,1E0,1.9E1,7E0,3E0,1.8E1,5E0,1E0,2E0,1.5E1,4E0,1E0,6E0,2E0,1E0,1.6E1,2E0,2E0,3E0,8E0,7E0,1E0,3E0,5E0,1E0,1E0,1E0],"tree_param":{"num_deleted":"0","num_feature":"30","num_nodes":"593","size_leaf_vector":"1"}},{"base_weights":[4.110963E0,-2.661535E2,5.9539294E2,-3.586378E2,9.073731E1,3.4416708E2,1.0502806E3,-1.466178E2,-4.3833795E2,9.104441E0,5.2577545E2,1.9006123E2,6.2687366E2,8.905659E2,1.597849E3,-8.313993E1,-3.8330716E2,-5.340332E2,-3.383524E2,1.8210327E2,-8.1093956E1,3.8400253E2,1.6091635E2,3.7800787E2,7.652797E1,5.047331E2,9.592493E2,7.308235E2,1.1808756E3,1.6813423E3,3.137938E2,-2.5065732E2,-3.685766E1,-4.181078E2,-1.2801927E2,-5.979356E2,-4.2334518E2,-4.2091553E2,-1.810864E2,-3.3929924E1,2.5121718E2,-2.3863182E2,8.822492E1,1.3988301E2,5.6102655E2,8.516134E1,4.494453E2,-1.4750934E2,3.5860794E2,4.0399634E2,7.2735913E2,5.5070293E1,1.00010394E3,4.9134253E2,9.0413763E2,5.847214E1,1.8614665E2,1.173386E3,2.866676E2,5.837758E1,1.2226026E1,-1.7719766E2,-3.8720282E2,-9.275043E1,5.758739E1,-3.1220322E2,-5.243797E2,-3.0357727E1,-4.0240265E1,-4.0165182E2,-6.2314575E2,-4.2862695E2,-1.8566572E1,1.758133E1,-4.54769E2,4.556398E1,-2.0256161E2,1.8917606E1,-5.7776978E1,6.103387E1,3.3664664E2,-2.7893045E2,-2.4056938E1,-2.8677692E1,2.620118E2,-9.031142E0,2.2244295E2,9.0177956E1,3.4014767E1,-2.5628492E1,1.4724248E2,1.5492316E2,4.9595096E2,-2.9827264E2,1.9290964E1,1.6951443E2,5.4859143E2,-3.2937103E1,4.5679645E2,-7.867768E0,7.7359595E2,1.0274032E3,3.6106384E1,9.519192E1,5.6117816E2,1.3839488E2,1.371275E1,1.05997536E2,2.3882085E2,-1.0001675E2,-2.3318037E2,-1.2144452E1,-4.536424E2,3.3252125E1,-2.1967665E2,1.18662384E2,-4.2801556E1,-4.691615E2,-2.5345093E2,-5.5503406E2,-3.2512638E1,-1.7256674E1,-8.189328E0,-5.4515515E2,-2.3468042E2,-1.1706519E2,-5.863575E2,-4.5701965E2,-3.4943527E2,1.1810298E2,-1.4676958E2,-5.158348E2,-2.5159941E2,3.0598253E1,-6.2092633E0,-2.6339624E2,-7.544134E1,-9.147697E1,7.381531E1,1.7648303E2,-3.3182236E1,5.2067516E1,2.1100513E1,-2.9110892E2,1.6529005E1,1.1861633E2,-2.3205261E2,-5.3748577E1,9.011793E0,3.6373648E2,3.5664288E1,4.0903343E1,3.937567E2,1.7334181E2,-8.531315E0,-5.523116E1,2.341798E2,4.1063806E2,1.0369376E2,-7.335546E1,-2.0667506E2,9.437847E1,-1.0533323E2,2.4962E2,-1.124056E2,1.2290661E2,4.207498E2,8.189099E1,-4.553082E1,7.735982E2,3.825073E2,7.9880304E2,2.5880623E1,1.6147865E2,6.098738E1,-7.679251E1,4.3916077E1,-1.6470663E1,6.080489E2,-1.6225035E2,-2.1113688E1,-2.4958124E2,-3.9578156E0,-1.6175153E2,-7.859712E1,1.11113266E2,-3.1361755E1,-3.2806625E2,-9.306113E1,3.928142E1,1.7078171E2,-1.4880026E2,2.6449419E1,-1.9721567E1,-8.0684586E1,-1.0389075E1,-2.6111295E2,-5.9809975E1,-1.08805336E2,-6.908597E0,3.0258455E0,-1.7678238E1,-5.7953796E2,-3.2996582E2,1.4560516E1,-1.3098927E1,-5.901003E2,-4.64146E2,-1.5977771E2,-8.2599075E1,-3.9046637E2,-5.574793E0,2.6407993E1,-3.3638573E1,1.223855E1,-3.225797E2,-5.530488E2,-2.7489392E2,8.850659E1,-7.150879E1,2.8919092E1,-1.2695864E2,-3.4732504E2,-1.4409154E2,1.7740794E2,-6.1776802E1,-1.8087452E1,3.395096E0,1.3213349E1,3.032195E1,3.612488E0,-1.4102533E2,2.9034706E1,-3.2359622E2,-2.1322447E2,3.0908365E1,2.3211485E1,-1.0630454E1,-3.9323555E1,2.1272537E2,-3.5665585E1,7.0662636E1,4.1059875E2,-9.583464E1,3.6441166E1,-4.52218E0,9.832011E1,1.4082541E1,6.936298E1,3.2235123E1,4.737223E0,-1.7411042E0,-1.0685907E1,4.0728504E1,3.5596528E0,4.8223962E2,2.366134E2,-2.5727945E2,-8.595747E1,-3.2181274E1,1.6034012E2,-3.1994816E1,-3.8183807E1,2.7413165E2,2.7513876E1,-2.5862026E1,-3.929828E1,1.3421613E1,6.5379295E1,-1.1583811E1,1.4097644E2,3.648844E1,1.4056256E2,4.3101718E2,2.330742E2,1.2298175E2,3.4619934E1,-1.8163343E1,4.20726E0,-3.6740013E1,3.3034115E1,9.726336E1,4.753055E1,-1.9737207E2,1.0018708E0,7.3626404E0,-7.806635E0,-1.204104E1,-2.7828586E2,-3.806529E1,1.6711946E0,1.7956364E2,3.0316977E1,5.4978156E0,-2.5435179E2,-5.125691E1,-6.1822724E0,1.22706215E2,-1.2770119E2,8.968366E1,-8.394397E1,1.9635323E2,-1.5959336E1,-1.6792792E2,4.620291E0,-1.8192268E2,-4.8844067E1,-9.133528E1,-2.5847013E1,-9.267297E1,-5.9042694E1,-2.3746094E1,9.711026E0,-4.5526086E2,-9.147797E1,-7.011978E1,-1.9874598E1,-3.6493013E0,-3.2300686E1,-3.416606E1,3.735747E1,-3.9853342E2,-1.5369306E1,-4.9875363E2,-2.1145135E2,-7.4836914E2,-4.9382477E2,-1.9362383E2,-3.491419E2,9.514161E-1,1.8962568E1,-1.3851005E1,-2.9846315E0,1.1527964E1,-3.1288834E2,-3.5440848E2,-1.01116705E1,-1.1982123E1,-1.5916484E2,6.1227463E1,-6.003809E0,-1.414758E1,-1.3792206E1,-2.4563227E1,-2.0533357E0,-1.1824994E2,-3.4433743E2,-5.6645493E1,-1.4065173E2,9.0986943E-1,6.044513E0,4.8423695E1,3.1717651E1,4.3534763E1,-2.6732236E2,1.2726819E1,3.1722748E0,2.685599E2,7.910002E1,-2.1486877E1,-7.2255573E0,4.4191775E0,1.7702848E1,9.462122E0,-8.396247E0,5.5263635E2,2.141418E2,3.781549E2,5.5636333E1,-4.203748E1,-1.8607246E1,-2.8613354E1,-2.042224E1,1.0740397E1,-2.1728348E1,4.4190395E1,1.0402736E2,-1.7908447E1,-1.350835E1,8.616785E1,3.082548E2,1.1037177E1,-4.8465548E0,-6.7201724E0,-1.7092255E0,2.5598207E1,3.895624E0,1.8261087E2,4.6788147E2,1.1589893E1,3.8866974E1,-1.0635499E0,-3.647549E1,2.8681397E0,-2.0934174E0,-4.4618076E1,-9.37067E0,-2.3266206E0,2.058868E2,-2.304445E1,2.1708199E1,-3.484956E1,1.25440384E2,-1.1942936E1,-4.5286217E1,-6.288016E0,3.3896915E1,-1.4960237E2,1.7071411E1,1.3918408E1,2.2126827E1,-2.598675E1,1.3796933E1,2.1682811E2,-6.7721467E0,-2.716378E1,-2.721634E0,-2.9391096E1,-5.2334385E0,3.9508393E0,-2.480226E1,-2.3409119E-1,-5.10878E0,-1.0772213E2,-9.300801E1,-6.0930386E1,-1.7235956E1,-6.535556E2,-7.4499146E1,-4.0141922E1,-9.196731E1,-1.2125492E2,-6.2805668E1,-9.181796E1,-4.2192477E2,2.0320517E1,-2.216369E2,-5.5021023E1,-1.5032507E2,5.269405E1,-4.6060314E1,-3.64264E2,-8.8715675E1,-5.396204E1,-1.4969532E1,-2.4579008E1,-6.6552615E0,-4.241614E0,2.224759E0,8.7315035E0,-2.9470991E1,-3.6986844E2,-1.7334595E2,-1.2423877E1,-2.0321268E2,8.275131E0,-1.1386597E0,-2.9886871E1,8.63352E1,-2.0620111E1,-5.2703228E1,1.2454719E1,4.8924747E1,5.945863E2,1.7265767E2,7.0957E1,5.0051144E1,1.6910475E1,7.2402E1,1.0074155E2,-3.4574099E0,-7.562775E0,2.7295735E0,-6.8370533E0,1.2338191E1,-1.7123352E1,1.5839528E2,2.7084553E0,-4.004535E0,1.8391926E1,-1.7375337E0,1.4603425E1,3.3529153E2,2.2662488E2,4.9161074E-1,4.8678436E2,5.3190584E0,2.2976834E2,2.9036958E0,-8.994031E1,1.4419519E1,-1.0656893E2,2.4804348E1,8.088984E0,2.3271112E1,-3.1291538E1,-9.3641304E1,1.7598057E1,-1.37569895E1,4.3625122E1,-7.868134E0,1.3176956E2,5.1536945E1,-4.7532753E1,3.932002E1,-2.4462664E1,-1.1031035E2,-1.8303772E0,-1.49319315E1,-1.07548904E2,-1.0544496E0,-4.416245E2,2.0779825E1,-6.1921697E0,1.0764286E1,-3.8520363E1,-9.291235E1,-3.7676241E0,-3.005552E1,-2.0228825E2,9.442939E1,-6.771218E1,-9.75918E1,-2.668012E1,6.719092E0,-4.039493E2,-2.8025398E1,1.1712003E1,-3.8358368E1,1.2073329E1,-1.5179297E1,-2.6496188E2,-1.6975616E1,2.1510818E2,2.548519E1,6.371412E2,3.392572E1,4.1834274E1,-2.9862947E0,1.3506159E1,1.0278625E0,6.6540594E0,2.0241377E1,-8.234162E-1,1.4375702E0,-6.020172E0,3.8932526E0,2.8296755E1,8.277094E0,-3.3726197E-1,9.4666445E-1,2.3853578E2,6.3456364E1,3.957041E1,8.631848E0,5.0600693E2,7.6750035E0,4.900705E1,1.8847124E1,-2.021167E0,-2.0463911E1,1.4783529E0,-1.5008353E2,7.691394E1,-3.2266113E1,-1.2122457E2,-2.885608E1,1.5553346E0,7.6881347E0,2.2695427E1,-3.3022523E0,-7.3799076E0,1.7209913E1,-4.304187E1,-2.0430946E1,-6.685002E1,-1.9479227E1,3.7554832E1,-3.287937E1,-2.7558765E1,-2.4277893E1,-2.6442758E2,-5.200639E1,1.823533E1,4.1369534E1,1.0327424E0,-2.2990898E1,-6.2494293E1,-1.6031992E1,-4.8913757E1,-6.1179295E0,4.4693344E1,-8.721122E0,3.1824419E1,-1.0773026E1,6.608002E2,2.8266909E1,-1.3959962E-1,2.7287823E2,3.5536072E2,6.506455E2,2.2820802E0,-1.9494507E0,-1.121285E1,-3.5838955E1,4.1023135E0,1.5126173E1,4.2458405E0,-8.172817E0,-2.2249311E1,-6.701624E0,-3.659546E-1,-3.684831E1,-2.4882203E-1,-9.435599E0,1.15529175E1,-2.4612745E1,-5.1262177E1,-2.43501E0,-1.4294496E0,-1.0271988E1,3.2332703E1,-9.959412E-1,-8.19556E1,2.6164886E1,2.9295008E1,1.03173035E2,4.770521E1,1.5998694E1,4.101023E2,5.443518E1,2.0955408E1,7.766717E2,4.5192995E0,-7.042191E0,-1.7448853E0,-6.5459843E0,1.4310517E0,5.5125065E0,-1.5133905E1,-1.8858216E0,-6.3326845E0,7.563814E1,4.5771207E2,-1.3789124E0,1.1169471E1,1.0784454E0,1.2644347E2,2.8422235E1,-9.1180116E-1,1.4638051E1,6.1713505E0,7.5696075E1],"categories":[],"categories_nodes":[],"categories_segments":[],"categories_sizes":[],"default_left":[0,0,0,0,0,0,0,0,0,0,0,0,0,0,0,0,0,0,0,0,0,0,0,0,0,0,0,0,0,0,0,0,0,0,0,0,0,0,0,0,0,0,0,0,0,0,0,0,0,0,0,0,0,0,0,0,0,0,0,0,0,0,0,0,0,0,0,0,0,0,0,0,0,0,0,0,0,0,0,0,0,0,0,0,0,0,0,0,0,0,0,0,0,0,0,0,0,0,0,0,0,0,0,0,0,0,0,0,0,0,0,0,0,0,0,0,0,0,0,0,0,0,0,0,0,0,0,0,0,0,0,0,0,0,0,0,0,0,0,0,0,0,0,0,0,0,0,0,0,0,0,0,0,0,0,0,0,0,0,0,0,0,0,0,0,0,0,0,0,0,0,0,0,0,0,0,0,0,0,0,0,0,0,0,0,0,0,0,0,0,0,0,0,0,0,0,0,0,0,0,0,0,0,0,0,0,0,0,0,0,0,0,0,0,0,0,0,0,0,0,0,0,0,0,0,0,0,0,0,0,0,0,0,0,0,0,0,0,0,0,0,0,0,0,0,0,0,0,0,0,0,0,0,0,0,0,0,0,0,0,0,0,0,0,0,0,0,0,0,0,0,0,0,0,0,0,0,0,0,0,0,0,0,0,0,0,0,0,0,0,0,0,0,0,0,0,0,0,0,0,0,0,0,0,0,0,0,0,0,0,0,0,0,0,0,0,0,0,0,0,0,0,0,0,0,0,0,0,0,0,0,0,0,0,0,0,0,0,0,0,0,0,0,0,0,0,0,0,0,0,0,0,0,0,0,0,0,0,0,0,0,0,0,0,0,0,0,0,0,0,0,0,0,0,0,0,0,0,0,0,0,0,0,0,0,0,0,0,0,0,0,0,0,0,0,0,0,0,0,0,0,0,0,0,0,0,0,0,0,0,0,0,0,0,0,0,0,0,0,0,0,0,0,0,0,0,0,0,0,0,0,0,0,0,0,0,0,0,0,0,0,0,0,0,0,0,0,0,0,0,0,0,0,0,0,0,0,0,0,0,0,0,0,0,0,0,0,0,0,0,0,0,0,0,0,0,0,0,0,0,0,0,0,0,0,0,0,0,0,0,0,0,0,0,0,0,0,0,0,0,0,0,0,0,0,0,0,0,0,0,0,0,0,0,0,0,0,0,0,0,0,0,0,0,0,0,0,0,0,0,0,0,0,0,0,0,0,0,0,0,0,0,0,0,0,0,0,0,0,0,0,0,0,0,0,0,0,0,0,0,0,0,0,0,0,0,0,0,0,0,0,0,0,0,0,0,0,0,0,0,0,0,0,0,0,0,0,0,0,0,0,0,0,0,0,0,0,0,0,0,0,0,0,0,0,0,0,0,0,0,0,0,0,0,0,0,0,0,0,0,0,0,0,0,0,0,0,0,0,0,0,0,0,0,0,0,0,0,0,0,0,0,0,0,0,0,0,0,0,0,0,0,0],"id":3,"left_children":[1,3,5,7,9,11,13,15,17,19,21,23,25,27,29,31,33,35,37,39,41,43,-1,45,47,49,51,53,55,57,59,61,63,65,67,69,71,73,75,77,79,81,83,85,87,89,91,93,95,97,99,-1,101,103,105,-1,-1,107,-1,-1,-1,109,111,113,115,117,119,-1,121,123,125,127,-1,129,131,133,135,-1,137,139,141,143,145,147,149,-1,151,-1,-1,-1,153,155,157,159,161,163,165,167,169,-1,171,173,-1,175,177,-1,-1,-1,-1,179,181,-1,183,185,187,189,191,193,195,197,-1,199,-1,201,203,-1,205,207,209,211,213,215,217,-1,219,221,223,225,227,229,231,-1,-1,233,-1,235,237,-1,239,